{"learner":{"attributes":{"scikit_learn":"{\"n_estimators\": 100, \"objective\": \"reg:squarederror\", \"max_depth\": 3, \"learning_rate\": null, \"verbosity\": null, \"booster\": null, \"tree_method\": null, \"gamma\": 0.5, \"min_child_weight\": 1, \"max_delta_step\": null, \"subsample\": null, \"colsample_bytree\": 0.6, \"colsample_bylevel\": null, \"colsample_bynode\": null, \"reg_alpha\": null, \"reg_lambda\": null, \"scale_pos_weight\": null, \"base_score\": null, \"missing\": NaN, \"num_parallel_tree\": null, \"kwargs\": {\"use_label_encoder\": false}, \"random_state\": null, \"n_jobs\": null, \"monotone_constraints\": null, \"interaction_constraints\": null, \"importance_type\": \"gain\", \"gpu_id\": null, \"validate_parameters\": null, \"_estimator_type\": \"regressor\"}"},"feature_names":["overall_0","overall_1","overall_2","up_0","up_1","up_2","down_0","down_1","down_2","foot_0","foot_1","foot_2","overall_item","up_item","down_item","foot_item"],"feature_types":["float","float","float","float","float","float","float","float","float","float","float","float","int","int","int","int"],"gradient_booster":{"model":{"gbtree_model_param":{"num_trees":"100","size_leaf_vector":"0"},"tree_info":[0,0,0,0,0,0,0,0,0,0,0,0,0,0,0,0,0,0,0,0,0,0,0,0,0,0,0,0,0,0,0,0,0,0,0,0,0,0,0,0,0,0,0,0,0,0,0,0,0,0,0,0,0,0,0,0,0,0,0,0,0,0,0,0,0,0,0,0,0,0,0,0,0,0,0,0,0,0,0,0,0,0,0,0,0,0,0,0,0,0,0,0,0,0,0,0,0,0,0,0],"trees":[{"base_weights":[9.391508E-3,1.6355887E-1,-8.006182E-2,9.950658E-2,1.940945E-1,-1.2811746E-1,7.9333335E-2,1.2739463E-1,-6.896552E-2,1.448718E-1,2.1566401E-1,-2.116307E-1,-8.590442E-2,-4.6296295E-2,1.1375212E-1],"categories":[],"categories_nodes":[],"categories_segments":[],"categories_sizes":[],"default_left":[true,true,true,false,false,false,false,false,false,false,false,false,false,false,false],"id":0,"left_children":[1,3,5,7,9,11,13,-1,-1,-1,-1,-1,-1,-1,-1],"loss_changes":[7.0497795E1,3.651867E0,2.478973E1,2.8653893E0,1.3171272E0,8.745838E0,3.2482815E0,0E0,0E0,0E0,0E0,0E0,0E0,0E0,0E0],"parents":[2147483647,0,0,1,1,2,2,3,3,4,4,5,5,6,6],"right_children":[2,4,6,8,10,12,14,-1,-1,-1,-1,-1,-1,-1,-1],"split_conditions":[4.5E0,1.627451E-1,4.490196E-1,1.509804E-1,3.627451E-1,1.6666667E-1,1.509804E-1,3.821839E-2,-2.0689655E-2,4.3461543E-2,6.469921E-2,-6.348921E-2,-2.5771327E-2,-1.3888889E-2,3.4125637E-2],"split_indices":[13,2,0,2,8,6,6,0,0,0,0,0,0,0,0],"split_type":[0,0,0,0,0,0,0,0,0,0,0,0,0,0,0],"sum_hessian":[5.11E3,1.876E3,3.234E3,6.07E2,1.269E3,2.485E3,7.49E2,5.21E2,8.6E1,3.89E2,8.8E2,8.33E2,1.652E3,1.61E2,5.88E2],"tree_param":{"num_deleted":"0","num_feature":"16","num_nodes":"15","size_leaf_vector":"0"}},{"base_weights":[6.585136E-3,7.198688E-2,-1.1314063E-1,1.20314874E-1,1.3219974E-2,-1.4997429E-1,-6.9550216E-2,8.900933E-2,1.5634811E-1,-2.532733E-2,8.330748E-2,-3.073433E-1,-1.4169964E-1,-1.8560702E-1,-2.4945863E-2],"categories":[],"categories_nodes":[],"categories_segments":[],"categories_sizes":[],"default_left":[false,true,false,false,false,false,true,false,false,false,false,false,false,false,false],"id":1,"left_children":[1,3,5,7,9,11,13,-1,-1,-1,-1,-1,-1,-1,-1],"loss_changes":[4.002867E1,9.387739E0,2.8892708E0,2.0323467E0,4.035725E0,1.2299728E0,4.2868032E0,0E0,0E0,0E0,0E0,0E0,0E0,0E0,0E0],"parents":[2147483647,0,0,1,1,2,2,3,3,4,4,5,5,6,6],"right_children":[2,4,6,8,10,12,14,-1,-1,-1,-1,-1,-1,-1,-1],"split_conditions":[9.901961E-1,4.5E0,4.137255E-1,6.450981E-1,6.72549E-1,6.0784318E-2,4.137255E-1,2.67028E-2,4.6904434E-2,-7.5981994E-3,2.4992246E-2,-9.220299E-2,-4.2509895E-2,-5.5682108E-2,-7.483759E-3],"split_indices":[2,13,7,0,0,8,10,0,0,0,0,0,0,0,0],"split_type":[0,0,0,0,0,0,0,0,0,0,0,0,0,0,0],"sum_hessian":[5.11E3,3.305E3,1.805E3,1.813E3,1.492E3,9.77E2,8.28E2,9.72E2,8.41E2,9.63E2,5.29E2,4.7E1,9.3E2,2.29E2,5.99E2],"tree_param":{"num_deleted":"0","num_feature":"16","num_nodes":"15","size_leaf_vector":"0"}},{"base_weights":[4.5886803E-3,5.0418332E-2,-7.930801E-2,-4.0601846E-4,7.545209E-2,-1.2513688E-1,5.1229253E-2,-7.256827E-2,3.533015E-2,1.0363289E-2,9.89689E-2,-2.102637E-1,-1.1162631E-1,-2.259925E-2,1.1464184E-1],"categories":[],"categories_nodes":[],"categories_segments":[],"categories_sizes":[],"default_left":[false,false,true,true,false,false,false,false,false,false,false,false,false,false,false],"id":2,"left_children":[1,3,5,7,9,11,13,-1,-1,-1,-1,-1,-1,-1,-1],"loss_changes":[1.9655571E1,4.206336E0,1.081058E1,2.818616E0,3.389433E0,1.5142269E0,2.2029696E0,0E0,0E0,0E0,0E0,0E0,0E0,0E0,0E0],"parents":[2147483647,0,0,1,1,2,2,3,3,4,4,5,5,6,6],"right_children":[2,4,6,8,10,12,14,-1,-1,-1,-1,-1,-1,-1,-1],"split_conditions":[9.901961E-1,7.3921573E-1,7.5E0,3.5E0,1.627451E-1,1.2745099E-1,2.0196079E-1,-2.1770481E-2,1.0599045E-2,3.108987E-3,2.9690672E-2,-6.307911E-2,-3.3487894E-2,-6.7797755E-3,3.4392554E-2],"split_indices":[2,3,14,14,6,3,7,0,0,0,0,0,0,0,0],"split_type":[0,0,0,0,0,0,0,0,0,0,0,0,0,0,0],"sum_hessian":[5.11E3,3.305E3,1.805E3,1.091E3,2.214E3,1.336E3,4.69E2,3.61E2,7.3E2,5.88E2,1.626E3,1.81E2,1.155E3,2.17E2,2.52E2],"tree_param":{"num_deleted":"0","num_feature":"16","num_nodes":"15","size_leaf_vector":"0"}},{"base_weights":[3.2028118E-3,6.282826E-2,-3.139384E-2,-3.0369872E-1,6.455962E-2,-5.5795148E-2,4.0892772E-2,1.8945363E-1,-3.8902447E-1,-1.082664E-1,6.791686E-2,-7.9841636E-2,2.9442217E-2,1.4587674E-2,2.0807125E-1],"categories":[],"categories_nodes":[],"categories_segments":[],"categories_sizes":[],"default_left":[true,false,true,false,false,true,false,true,true,false,false,false,false,false,false],"id":3,"left_children":[1,3,5,-1,9,11,13,-1,-1,-1,-1,-1,-1,-1,-1],"loss_changes":[1.0545152E1,1.2107334E0,5.7084594E0,4.5240933E-1,1.0917807E0,4.9604754E0,3.5898418E0,0E0,0E0,0E0,0E0,0E0,0E0,0E0,0E0],"parents":[2147483647,0,0,1,1,2,2,3,3,4,4,5,5,6,6],"right_children":[2,4,6,-1,10,12,14,-1,-1,-1,-1,-1,-1,-1,-1],"split_conditions":[4.5E0,2.9411767E-2,7.5E0,-9.110962E-2,6.4705886E-2,4.5686275E-1,9.196079E-1,5.683609E-2,-1.1670735E-1,-3.247992E-2,2.037506E-2,-2.3952492E-2,8.832665E-3,4.3763025E-3,6.2421378E-2],"split_indices":[13,0,14,5,6,0,7,2147483647,2147483647,0,0,0,0,0,0],"split_type":[0,0,0,0,0,0,0,0,0,0,0,0,0,0,0],"sum_hessian":[5.11E3,1.876E3,3.234E3,8E0,1.868E3,2.418E3,8.16E2,1E0,7E0,3.5E1,1.833E3,1.886E3,5.32E2,7.06E2,1.1E2],"tree_param":{"num_deleted":"2","num_feature":"16","num_nodes":"15","size_leaf_vector":"0"}},{"base_weights":[2.231876E-3,2.7106825E-2,-4.2839807E-2,-8.742186E-2,4.0232033E-2,-6.546291E-2,2.162857E-2,-6.710514E-2,-2.8023833E-1,-7.485534E-3,5.5884015E-2,-1.0314439E-1,-3.6272794E-2,-4.9112402E-2,7.83005E-2],"categories":[],"categories_nodes":[],"categories_segments":[],"categories_sizes":[],"default_left":[false,false,true,false,false,false,true,false,false,false,false,false,false,false,false],"id":4,"left_children":[1,3,5,7,9,11,13,-1,-1,-1,-1,-1,-1,-1,-1],"loss_changes":[5.731389E0,4.9551E0,2.6529233E0,1.3091924E0,2.208179E0,1.4767604E0,1.9001154E0,0E0,0E0,0E0,0E0,0E0,0E0,0E0,0E0],"parents":[2147483647,0,0,1,1,2,2,3,3,4,4,5,5,6,6],"right_children":[2,4,6,8,10,12,14,-1,-1,-1,-1,-1,-1,-1,-1],"split_conditions":[9.862745E-1,1E-1,7.5E0,5.7254905E-1,1.627451E-1,2.3333333E-1,7.490196E-1,-2.0131541E-2,-8.40715E-2,-2.2456604E-3,1.6765205E-2,-3.094332E-2,-1.0881838E-2,-1.47337215E-2,2.3490151E-2],"split_indices":[1,4,14,3,6,6,3,0,0,0,0,0,0,0,0],"split_type":[0,0,0,0,0,0,0,0,0,0,0,0,0,0,0],"sum_hessian":[5.11E3,3.293E3,1.817E3,3.38E2,2.955E3,1.345E3,4.72E2,3.07E2,3.1E1,7.3E2,2.225E3,5.86E2,7.59E2,2.1E2,2.62E2],"tree_param":{"num_deleted":"0","num_feature":"16","num_nodes":"15","size_leaf_vector":"0"}},{"base_weights":[1.5383079E-3,1.2336612E-2,-6.70914E-2,-4.7581654E-2,2.6565842E-2,2.6069337E-1,-7.8193866E-2,-1.3361564E-1,-2.6601825E-2,-1.1956417E-2,4.4806447E-2,3.531237E-1,-6.0046464E-2,-1.315779E-1,-3.1967316E-2],"categories":[],"categories_nodes":[],"categories_segments":[],"categories_sizes":[],"default_left":[true,false,false,false,true,true,true,false,false,false,false,false,false,false,false],"id":5,"left_children":[1,3,5,7,9,11,13,-1,-1,-1,-1,-1,-1,-1,-1],"loss_changes":[3.78851E0,3.7671576E0,2.5496414E0,1.5270675E0,2.5090656E0,7.030636E-1,1.6565962E0,0E0,0E0,0E0,0E0,0E0,0E0,0E0,0E0],"parents":[2147483647,0,0,1,1,2,2,3,3,4,4,5,5,6,6],"right_children":[2,4,6,8,10,12,14,-1,-1,-1,-1,-1,-1,-1,-1],"split_conditions":[9.5E0,1.509804E-1,6.4705886E-2,1.509804E-1,6.4705886E-2,2E-1,2.4509804E-1,-4.0084694E-2,-7.980548E-3,-3.5869253E-3,1.3441934E-2,1.05937116E-1,-1.801394E-2,-3.947337E-2,-9.5901955E-3],"split_indices":[13,4,11,0,1,1,6,0,0,0,0,0,0,0,0],"split_type":[0,0,0,0,0,0,0,0,0,0,0,0,0,0,0],"sum_hessian":[5.11E3,4.416E3,6.94E2,8.47E2,3.569E3,2.2E1,6.72E2,1.65E2,6.82E2,1.147E3,2.422E3,1.7E1,5E0,3.11E2,3.61E2],"tree_param":{"num_deleted":"0","num_feature":"16","num_nodes":"15","size_leaf_vector":"0"}},{"base_weights":[1.076949E-3,-1.2498794E-2,3.516475E-2,-2.6028E-2,3.1383604E-2,-1.18650526E-1,3.9817434E-2,-1.0109652E-2,-9.025681E-2,3.46569E-1,2.116663E-2,2.4345851E-1,-2.0837426E-1,-1.1547104E-1,4.5006223E-2],"categories":[],"categories_nodes":[],"categories_segments":[],"categories_sizes":[],"default_left":[true,true,false,true,false,false,false,false,false,false,false,false,false,false,false],"id":6,"left_children":[1,3,5,7,9,11,13,-1,-1,-1,-1,-1,-1,-1,-1],"loss_changes":[2.365643E0,2.171362E0,1.046716E0,2.8567414E0,2.7685113E0,1.4477909E0,1.1445403E0,0E0,0E0,0E0,0E0,0E0,0E0,0E0,0E0],"parents":[2147483647,0,0,1,1,2,2,3,3,4,4,5,5,6,6],"right_children":[2,4,6,8,10,12,14,-1,-1,-1,-1,-1,-1,-1,-1],"split_conditions":[6.450981E-1,7.5E0,7.254902E-2,5.5E0,6.0784318E-2,1.21568635E-1,7.647059E-2,-3.0328957E-3,-2.7077043E-2,1.0397071E-1,6.349989E-3,7.303756E-2,-6.251228E-2,-3.4641314E-2,1.3501868E-2],"split_indices":[0,14,5,14,5,7,8,0,0,0,0,0,0,0,0],"split_type":[0,0,0,0,0,0,0,0,0,0,0,0,0,0,0],"sum_hessian":[5.11E3,3.655E3,1.455E3,2.794E3,8.61E2,4.2E1,1.413E3,2.24E3,5.54E2,2.6E1,8.35E2,8E0,3.4E1,4.5E1,1.368E3],"tree_param":{"num_deleted":"0","num_feature":"16","num_nodes":"15","size_leaf_vector":"0"}},{"base_weights":[7.674823E-4,7.6175765E-3,-4.276868E-2,-7.768248E-2,1.0987645E-2,1.1761175E-1,-5.8942065E-2,-1.3710356E-1,7.372655E-2,-4.706844E-3,2.8563123E-2,2.4058545E-1,-5.9818335E-2,-1.5397164E-1,-3.1338926E-2],"categories":[],"categories_nodes":[],"categories_segments":[],"categories_sizes":[],"default_left":[true,false,false,true,true,true,false,false,false,false,false,false,false,false,false],"id":7,"left_children":[1,3,5,7,9,11,13,-1,-1,-1,-1,-1,-1,-1,-1],"loss_changes":[1.5245631E0,1.2705956E0,1.8096888E0,1.5215856E0,1.1724467E0,1.4108224E0,1.652983E0,0E0,0E0,0E0,0E0,0E0,0E0,0E0,0E0],"parents":[2147483647,0,0,1,1,2,2,3,3,4,4,5,5,6,6],"right_children":[2,4,6,8,10,12,14,-1,-1,-1,-1,-1,-1,-1,-1],"split_conditions":[9.5E0,7.254902E-2,9.607843E-2,7.5E0,1.627451E-1,6.9411767E-1,5.7843137E-1,-4.1131068E-2,2.2117965E-2,-1.4120534E-3,8.568937E-3,7.217564E-2,-1.7945502E-2,-4.6191495E-2,-9.401678E-3],"split_indices":[13,5,5,14,2,10,0,0,0,0,0,0,0,0,0],"split_type":[0,0,0,0,0,0,0,0,0,0,0,0,0,0,0],"sum_hessian":[5.11E3,4.416E3,6.94E2,1.67E2,4.249E3,6.3E1,6.31E2,1.2E2,4.7E1,2.245E3,2.004E3,3.7E1,2.6E1,1.41E2,4.9E2],"tree_param":{"num_deleted":"0","num_feature":"16","num_nodes":"15","size_leaf_vector":"0"}},{"base_weights":[5.346499E-4,-4.5668393E-2,6.701767E-3,3.4160126E-2,-1.0285107E-1,-3.3282198E-2,1.45082E-2,6.3045874E-2,-3.0406687E-1,-1.9105884E-1,-4.815982E-2,6.6741104E-3,-9.053537E-2,2.8007638E-1,1.0939632E-2],"categories":[],"categories_nodes":[],"categories_segments":[],"categories_sizes":[],"default_left":[false,true,false,false,false,true,false,false,false,false,false,false,false,false,false],"id":8,"left_children":[1,3,5,7,9,11,13,-1,-1,-1,-1,-1,-1,-1,-1],"loss_changes":[1.4566321E0,2.751528E0,1.4081988E0,2.4811952E0,1.6840904E0,1.686584E0,3.5735493E0,0E0,0E0,0E0,0E0,0E0,0E0,0E0,0E0],"parents":[2147483647,0,0,1,1,2,2,3,3,4,4,5,5,6,6],"right_children":[2,4,6,8,10,12,14,-1,-1,-1,-1,-1,-1,-1,-1],"split_conditions":[1.0392157E-1,1.392157E-1,1.3137256E-1,1E-1,7.058824E-1,2.2156863E-1,1.2745099E-1,1.8913763E-2,-9.1220066E-2,-5.7317656E-2,-1.4447946E-2,2.0022332E-3,-2.7160613E-2,8.402292E-2,3.2818897E-3],"split_indices":[6,3,4,6,4,6,5,0,0,0,0,0,0,0,0],"split_type":[0,0,0,0,0,0,0,0,0,0,0,0,0,0,0],"sum_hessian":[5.11E3,6.01E2,4.509E3,2.51E2,3.5E2,7.36E2,3.773E3,2.32E2,1.9E1,1.33E2,2.17E2,4.34E2,3.02E2,4.9E1,3.724E3],"tree_param":{"num_deleted":"0","num_feature":"16","num_nodes":"15","size_leaf_vector":"0"}},{"base_weights":[3.5822563E-4,6.0350453E-3,-3.1653605E-2,-1.5963556E-2,1.6073296E-2,-4.3642867E-2,1.1356686E-1,-4.334853E-2,7.1444274E-3,2.0274114E-2,-7.550538E-2,3.088017E-1,-4.657218E-2,-7.492045E-3,2.2315207E-1],"categories":[],"categories_nodes":[],"categories_segments":[],"categories_sizes":[],"default_left":[true,false,true,true,true,false,true,false,false,false,false,false,false,false,false],"id":9,"left_children":[1,3,5,7,9,11,13,-1,-1,-1,-1,-1,-1,-1,-1],"loss_changes":[9.2898947E-1,9.5908946E-1,1.3455927E0,8.615662E-1,1.1487222E0,7.494651E-1,7.8438157E-1,0E0,0E0,0E0,0E0,0E0,0E0,0E0,0E0],"parents":[2147483647,0,0,1,1,2,2,3,3,4,4,5,5,6,6],"right_children":[2,4,6,8,10,12,14,-1,-1,-1,-1,-1,-1,-1,-1],"split_conditions":[9.3529415E-1,3.8235295E-1,9.1568625E-1,7.647059E-2,9.509804E-1,2.9411767E-2,3.509804E-1,-1.3004559E-2,2.1433283E-3,6.0822344E-3,-2.2651616E-2,9.264052E-2,-1.3971654E-2,-2.2476136E-3,6.694563E-2],"split_indices":[5,3,2,2,2,8,7,0,0,0,0,0,0,0,0],"split_type":[0,0,0,0,0,0,0,0,0,0,0,0,0,0,0],"sum_hessian":[5.11E3,4.341E3,7.69E2,1.36E3,2.981E3,7.11E2,5.8E1,6.22E2,7.38E2,2.851E3,1.3E2,5E0,7.06E2,2.8E1,3E1],"tree_param":{"num_deleted":"0","num_feature":"16","num_nodes":"15","size_leaf_vector":"0"}},{"base_weights":[2.7344012E-4,9.055398E-3,-1.7244335E-2,4.828953E-4,1.7955583E-1,-3.5304777E-2,3.2529246E-2,-2.352568E-1,1.2116876E-3,6.861531E-2,2.418335E-1,-5.629451E-2,2.7111905E-2,2.171613E-1,1.5183493E-2],"categories":[],"categories_nodes":[],"categories_segments":[],"categories_sizes":[],"default_left":[true,true,false,false,true,true,false,false,false,false,false,false,false,false,false],"id":10,"left_children":[1,3,5,7,9,11,13,-1,-1,-1,-1,-1,-1,-1,-1],"loss_changes":[7.864343E-1,4.976714E0,1.5356269E0,5.574496E-1,1.1095924E0,1.643093E0,1.4538774E0,0E0,0E0,0E0,0E0,0E0,0E0,0E0,0E0],"parents":[2147483647,0,0,1,1,2,2,3,3,4,4,5,5,6,6],"right_children":[2,4,6,8,10,12,14,-1,-1,-1,-1,-1,-1,-1,-1],"split_conditions":[8.647059E-1,8.137255E-1,9.431373E-1,2.9411767E-2,9.803922E-2,9.666667E-1,9.509804E-1,-7.057705E-2,3.635063E-4,2.0584594E-2,7.255005E-2,-1.6888354E-2,8.133572E-3,6.514839E-2,4.555048E-3],"split_indices":[3,3,6,0,6,9,6,0,0,0,0,0,0,0,0],"split_type":[0,0,0,0,0,0,0,0,0,0,0,0,0,0,0],"sum_hessian":[5.11E3,3.404E3,1.706E3,3.242E3,1.62E2,1.252E3,4.54E2,9E0,3.233E3,5.9E1,1.03E2,9.37E2,3.15E2,3.8E1,4.16E2],"tree_param":{"num_deleted":"0","num_feature":"16","num_nodes":"15","size_leaf_vector":"0"}},{"base_weights":[2.0781266E-4,-7.376453E-3,2.463887E-2,8.7363285E-4,-4.687779E-2,7.853481E-2,6.5672803E-3,-1.4302476E-1,3.3668708E-3,-3.587793E-1,-4.2592514E-2,-9.966351E-2,1.0907477E-1,1.3099606E-2,-1.3188702E-1],"categories":[],"categories_nodes":[],"categories_segments":[],"categories_sizes":[],"default_left":[true,true,false,false,false,false,true,false,false,false,false,false,false,false,false],"id":11,"left_children":[1,3,5,7,9,11,13,-1,-1,-1,-1,-1,-1,-1,-1],"loss_changes":[9.4720733E-1,1.2713355E0,1.1789806E0,1.1586006E0,8.8557553E-1,1.6652905E0,8.229489E-1,0E0,0E0,0E0,0E0,0E0,0E0,0E0,0E0],"parents":[2147483647,0,0,1,1,2,2,3,3,4,4,5,5,6,6],"right_children":[2,4,6,8,10,12,14,-1,-1,-1,-1,-1,-1,-1,-1],"split_conditions":[7.5E0,5.5E0,2.7450982E-1,4.509804E-2,6.0784318E-2,8.039216E-2,9.862745E-1,-4.2907428E-2,1.0100612E-3,-1.076338E-1,-1.2777755E-2,-2.9899055E-2,3.2722432E-2,3.929882E-3,-3.9566107E-2],"split_indices":[14,14,1,4,10,2,3,0,0,0,0,0,0,0,0],"split_type":[0,0,0,0,0,0,0,0,0,0,0,0,0,0,0],"sum_hessian":[5.11E3,3.9E3,1.21E3,3.227E3,6.73E2,3.03E2,9.07E2,5.4E1,3.173E3,8E0,6.65E2,4.4E1,2.59E2,8.67E2,4E1],"tree_param":{"num_deleted":"0","num_feature":"16","num_nodes":"15","size_leaf_vector":"0"}},{"base_weights":[1.0729516E-4,-7.1816914E-2,1.8214697E-3,-1.1151448E-1,2.1085383E-1,1.2702163E-1,6.7026784E-5,-1.3742918E-1,4.3426538E-1,-1.1439343E-1,3.3952495E-1,1.9817579E-1,-1.6666803E-1,-6.36324E-3,2.137356E-2],"categories":[],"categories_nodes":[],"categories_segments":[],"categories_sizes":[],"default_left":[false,false,false,true,false,true,true,false,false,false,false,false,false,false,false],"id":12,"left_children":[1,3,5,7,9,11,13,-1,-1,-1,-1,-1,-1,-1,-1],"loss_changes":[6.302694E-1,1.3588526E0,1.0967366E0,1.5447714E0,6.665884E-1,1.4749395E0,6.74894E-1,0E0,0E0,0E0,0E0,0E0,0E0,0E0,0E0],"parents":[2147483647,0,0,1,1,2,2,3,3,4,4,5,5,6,6],"right_children":[2,4,6,8,10,12,14,-1,-1,-1,-1,-1,-1,-1,-1],"split_conditions":[6.0784318E-2,6.8627454E-2,6.0784318E-2,9.627451E-1,4.490196E-1,9.705882E-1,7.5E0,-4.1228756E-2,1.3027962E-1,-3.431803E-2,1.0185749E-1,5.945274E-2,-5.000041E-2,-1.908972E-3,6.4120684E-3],"split_indices":[8,7,7,5,5,11,14,0,0,0,0,0,0,0,0],"split_type":[0,0,0,0,0,0,0,0,0,0,0,0,0,0,0],"sum_hessian":[5.11E3,1.18E2,4.992E3,1.04E2,1.4E1,6.8E1,4.924E3,1E2,4E0,4E0,1E1,5.5E1,1.3E1,3.783E3,1.141E3],"tree_param":{"num_deleted":"0","num_feature":"16","num_nodes":"15","size_leaf_vector":"0"}},{"base_weights":[1.0846305E-4,1.5000167E-3,-6.561065E-2,-6.669818E-5,8.70782E-2,4.7515966E-2,-2.1420005E-1,-1.9248452E-2,4.7861803E-3,-2.3469338E-1,1.170432E-1,1.3105963E-1,-3.4414247E-1,-2.9545742E-1,2.8072777E-1],"categories":[],"categories_nodes":[],"categories_segments":[],"categories_sizes":[],"default_left":[true,true,false,false,false,true,true,true,true,false,false,false,false,false,false],"id":13,"left_children":[1,3,5,-1,9,11,13,-1,-1,-1,-1,-1,-1,-1,-1],"loss_changes":[4.6750787E-1,6.7119336E-1,1.791976E0,4.5779952E-1,8.952387E-1,2.0410585E0,1.9329033E0,0E0,0E0,0E0,0E0,0E0,0E0,0E0,0E0],"parents":[2147483647,0,0,1,1,2,2,3,3,4,4,5,5,6,6],"right_children":[2,4,6,-1,10,12,14,-1,-1,-1,-1,-1,-1,-1,-1],"split_conditions":[9.901961E-1,9.82353E-1,6.745098E-1,-2.0009455E-5,1.1372549E-1,9.5E0,7.352941E-1,-5.7745357E-3,1.4358541E-3,-7.040802E-2,3.5112962E-2,3.931789E-2,-1.0324275E-1,-8.863723E-2,8.421834E-2],"split_indices":[4,3,8,11,8,13,1,2147483647,2147483647,0,0,0,0,0,0],"split_type":[0,0,0,0,0,0,0,0,0,0,0,0,0,0,0],"sum_hessian":[5.11E3,5.005E3,1.05E2,4.916E3,8.9E1,6E1,4.5E1,9.92E2,3.924E3,7E0,8.2E1,5E1,1E1,3.9E1,6E0],"tree_param":{"num_deleted":"2","num_feature":"16","num_nodes":"15","size_leaf_vector":"0"}},{"base_weights":[5.5647146E-5,-1.5561805E-2,7.5724632E-3,2.5344786E-1,-1.7837638E-2,6.985376E-2,1.2942541E-3,3.1167626E-1,-6.3948296E-2,6.692005E-2,-2.3356171E-2,3.062498E-1,5.0251856E-2,-1.7387183E-1,3.9006423E-3],"categories":[],"categories_nodes":[],"categories_segments":[],"categories_sizes":[],"default_left":[false,false,false,true,false,true,false,true,true,false,false,false,false,false,false],"id":14,"left_children":[1,3,5,-1,9,11,13,-1,-1,-1,-1,-1,-1,-1,-1],"loss_changes":[6.00116E-1,1.0214204E0,1.3493024E0,2.786718E-1,7.723953E-1,1.4488951E0,1.4324216E0,0E0,0E0,0E0,0E0,0E0,0E0,0E0,0E0],"parents":[2147483647,0,0,1,1,2,2,3,3,4,4,5,5,6,6],"right_children":[2,4,6,-1,10,12,14,-1,-1,-1,-1,-1,-1,-1,-1],"split_conditions":[1.9411765E-1,4.509804E-2,2.4901962E-1,7.603436E-2,7.254902E-2,3.137255E-2,2.647059E-1,9.350288E-2,-1.9184489E-2,2.0076016E-2,-7.0068515E-3,9.187494E-2,1.5075558E-2,-5.2161552E-2,1.1701927E-3],"split_indices":[6,2,7,14,10,11,7,2147483647,2147483647,0,0,0,0,0,0],"split_type":[0,0,0,0,0,0,0,0,0,0,0,0,0,0,0],"sum_hessian":[5.11E3,1.66E3,3.45E3,1.3E1,1.647E3,3.15E2,3.135E3,1.1E1,2E0,1E2,1.547E3,2.3E1,2.92E2,4.5E1,3.09E3],"tree_param":{"num_deleted":"2","num_feature":"16","num_nodes":"15","size_leaf_vector":"0"}},{"base_weights":[6.732395E-5,-2.925984E-1,3.5384466E-4,-4.615815E-1,1.9166699E-1,-1.8446831E-2,5.0792587E-3,-2.4539081E-2,2.482952E-1,1.1236031E-1,2.2739535E-3],"categories":[],"categories_nodes":[],"categories_segments":[],"categories_sizes":[],"default_left":[false,false,false,true,true,false,false,false,false,false,false],"id":15,"left_children":[1,-1,5,-1,-1,7,9,-1,-1,-1,-1],"loss_changes":[4.286854E-1,4.9763322E-1,4.5380455E-1,0E0,0E0,1.6734037E0,1.2282472E0,0E0,0E0,0E0,0E0],"parents":[2147483647,0,0,1,1,2,2,5,5,6,6],"right_children":[2,-1,6,-1,-1,8,10,-1,-1,-1,-1],"split_conditions":[9.803922E-3,-8.777952E-2,1.3529412E-1,-1.3847445E-1,5.7500098E-2,1.9411765E-1,1.4313726E-1,-7.3617245E-3,7.4488565E-2,3.3708096E-2,6.821861E-4],"split_indices":[1,2,11,2147483647,2147483647,10,11,0,0,0,0],"split_type":[0,0,0,0,0,0,0,0,0,0,0],"sum_hessian":[5.11E3,4E0,5.106E3,3E0,1E0,1.025E3,4.081E3,1.003E3,2.2E1,1.03E2,3.978E3],"tree_param":{"num_deleted":"2","num_feature":"16","num_nodes":"11","size_leaf_vector":"0"}},{"base_weights":[4.981969E-5,8.6476345E-4,-8.082234E-2,-4.3863498E-4,8.636318E-2,1.8408816E-1,-2.438657E-1,-2.117759E-3,4.925789E-2,1.2575519E-1,-4.9815446E-1,-2.0392132E-1,2.938356E-1,-5.8771987E-2,-4.4972044E-1],"categories":[],"categories_nodes":[],"categories_segments":[],"categories_sizes":[],"default_left":[true,true,false,true,true,false,false,true,true,false,false,false,false,false,false],"id":16,"left_children":[1,3,5,-1,9,11,13,-1,-1,-1,-1,-1,-1,-1,-1],"loss_changes":[3.3691677E-1,5.6402814E-1,2.2476797E0,4.1616923E-1,1.8125703E0,9.115804E-1,1.1928463E0,0E0,0E0,0E0,0E0,0E0,0E0,0E0,0E0],"parents":[2147483647,0,0,1,1,2,2,3,3,4,4,5,5,6,6],"right_children":[2,4,6,-1,10,12,14,-1,-1,-1,-1,-1,-1,-1,-1],"split_conditions":[9.862745E-1,9.7843134E-1,3.4901962E-1,-1.315905E-4,9.7843134E-1,6.392157E-1,9.431373E-1,-6.353278E-4,1.4777367E-2,3.772656E-2,-1.4944634E-1,-6.1176397E-2,8.815069E-2,-1.7631596E-2,-1.3491614E-1],"split_indices":[1,0,5,6,6,6,9,2147483647,2147483647,0,0,0,0,0,0],"split_type":[0,0,0,0,0,0,0,0,0,0,0,0,0,0,0],"sum_hessian":[5.11E3,5.06E3,5E1,4.985E3,7.5E1,1.9E1,3.1E1,4.823E3,1.62E2,7.1E1,4E0,4E0,1.5E1,1.7E1,1.4E1],"tree_param":{"num_deleted":"2","num_feature":"16","num_nodes":"15","size_leaf_vector":"0"}},{"base_weights":[-1.1576678E-5,6.3383873E-3,-1.3539754E-2,-2.3517986E-3,5.333054E-2,-2.5662485E-1,-7.899374E-3,2.0722037E-3,-9.075185E-2,2.3554169E-2,1.6273533E-1,-4.00401E-1,7.627558E-2,9.562504E-3,-7.129599E-2],"categories":[],"categories_nodes":[],"categories_segments":[],"categories_sizes":[],"default_left":[true,true,false,true,true,true,true,false,false,false,false,false,false,false,false],"id":17,"left_children":[1,3,5,7,9,11,13,-1,-1,-1,-1,-1,-1,-1,-1],"loss_changes":[4.3913832E-1,1.4208466E0,2.2369668E0,1.1487961E0,1.7650858E0,1.8014772E0,1.768599E0,0E0,0E0,0E0,0E0,0E0,0E0,0E0,0E0],"parents":[2147483647,0,0,1,1,2,2,3,3,4,4,5,5,6,6],"right_children":[2,4,6,8,10,12,14,-1,-1,-1,-1,-1,-1,-1,-1],"split_conditions":[9.431373E-1,8.137255E-1,6.4705886E-2,7.0392156E-1,8.176471E-1,6.5E0,7.705883E-1,6.2166114E-4,-2.7225556E-2,7.066251E-3,4.88206E-2,-1.201203E-1,2.2882674E-2,2.868751E-3,-2.1388799E-2],"split_indices":[11,11,1,11,7,13,8,0,0,0,0,0,0,0,0],"split_type":[0,0,0,0,0,0,0,0,0,0,0,0,0,0,0],"sum_hessian":[5.11E3,3.478E3,1.632E3,2.936E3,5.42E2,3.6E1,1.596E3,2.797E3,1.39E2,4.27E2,1.15E2,2.5E1,1.1E1,1.252E3,3.44E2],"tree_param":{"num_deleted":"0","num_feature":"16","num_nodes":"15","size_leaf_vector":"0"}},{"base_weights":[-2.5026658E-5,1.4391601E-2,-5.662216E-3,-4.629858E-3,1.0833901E-1,1.1638225E-1,-7.6857237E-3,-2.9636243E-1,5.835894E-4,3.568129E-1,8.434671E-2,-3.6783168E-1,1.8727526E-1,-5.6621853E-2,2.0307924E-4],"categories":[],"categories_nodes":[],"categories_segments":[],"categories_sizes":[],"default_left":[false,false,false,false,false,false,false,false,false,false,false,false,false,false,false],"id":18,"left_children":[1,3,5,7,9,11,13,-1,-1,-1,-1,-1,-1,-1,-1],"loss_changes":[4.154487E-1,2.5684447E0,9.0846515E-1,1.8192083E0,1.4125774E0,2.1285286E0,1.3959593E0,0E0,0E0,0E0,0E0,0E0,0E0,0E0,0E0],"parents":[2147483647,0,0,1,1,2,2,3,3,4,4,5,5,6,6],"right_children":[2,4,6,8,10,12,14,-1,-1,-1,-1,-1,-1,-1,-1],"split_conditions":[2.4117647E-1,2.0980392E-1,1.5882353E-1,3.7254903E-2,1E-1,1E-1,6.215687E-1,-8.890873E-2,1.7507683E-4,1.0704387E-1,2.5304014E-2,-1.10349506E-1,5.6182582E-2,-1.6986556E-2,6.0923772E-5],"split_indices":[2,1,0,4,3,11,0,0,0,0,0,0,0,0,0],"split_type":[0,0,0,0,0,0,0,0,0,0,0,0,0,0,0],"sum_hessian":[5.11E3,1.436E3,3.674E3,1.195E3,2.41E2,5.9E1,3.615E3,2E1,1.175E3,2E1,2.21E2,7E0,5.2E1,5.01E2,3.114E3],"tree_param":{"num_deleted":"0","num_feature":"16","num_nodes":"15","size_leaf_vector":"0"}},{"base_weights":[-2.2890184E-5,-3.8053812E-3,1.8969787E-2,1.0480371E-2,-1.3322147E-2,-3.0740824E-2,5.616257E-2,1.3216391E-2,-1.6671169E-1,3.7304497E-1,-1.4528109E-2,5.333075E-2,-7.7675164E-2,-1.0361792E-1,7.721216E-2],"categories":[],"categories_nodes":[],"categories_segments":[],"categories_sizes":[],"default_left":[false,true,true,true,false,false,false,false,false,false,false,false,false,false,false],"id":19,"left_children":[1,3,5,7,9,11,13,-1,-1,-1,-1,-1,-1,-1,-1],"loss_changes":[3.6724454E-1,5.797122E-1,1.5714221E0,8.28789E-1,1.1977704E0,1.4404296E0,1.6425714E0,0E0,0E0,0E0,0E0,0E0,0E0,0E0,0E0],"parents":[2147483647,0,0,1,1,2,2,3,3,4,4,5,5,6,6],"right_children":[2,4,6,8,10,12,14,-1,-1,-1,-1,-1,-1,-1,-1],"split_conditions":[9.901961E-1,4.5E0,2.254902E-1,9.5882356E-1,4.7058824E-2,2.6862746E-1,1.2352942E-1,3.9649177E-3,-5.001351E-2,1.11913495E-1,-4.3584327E-3,1.5999226E-2,-2.330255E-2,-3.1085378E-2,2.316365E-2],"split_indices":[10,13,6,4,2,5,5,0,0,0,0,0,0,0,0],"split_type":[0,0,0,0,0,0,0,0,0,0,0,0,0,0,0],"sum_hessian":[5.11E3,4.262E3,8.48E2,1.704E3,2.558E3,3.63E2,4.85E2,1.679E3,2.5E1,7E0,2.551E3,1.3E2,2.33E2,5.6E1,4.29E2],"tree_param":{"num_deleted":"0","num_feature":"16","num_nodes":"15","size_leaf_vector":"0"}},{"base_weights":[-6.9646076E-6,1.7169183E-1,-4.109604E-4,4.3168557E-1,-7.568734E-2,-2.3418824E-1,1.4037352E-4,-2.9990205E-1,3.2323298E-1,-4.3507174E-1,3.9207198E-2,-2.909573E-1,3.6928628E-4],"categories":[],"categories_nodes":[],"categories_segments":[],"categories_sizes":[],"default_left":[false,false,false,false,false,false,false,false,false,false,false,true,true],"id":20,"left_children":[1,3,5,-1,7,9,-1,-1,-1,-1,-1,-1,-1],"loss_changes":[3.5459808E-1,8.0447745E-1,6.5736854E-1,0E0,7.230448E-1,6.7610544E-1,3.392179E-1,0E0,0E0,0E0,0E0,0E0,0E0],"parents":[2147483647,0,0,1,1,2,2,4,4,5,5,6,6],"right_children":[2,4,6,-1,8,10,-1,-1,-1,-1,-1,-1,-1],"split_conditions":[1.3725491E-2,1.890197E0,2.5490196E-2,1.2950568E-1,9.803922E-3,2.0196079E-1,4.2112057E-5,-8.997062E-2,9.6969895E-2,-1.3052152E-1,1.176216E-2,-8.7287195E-2,1.1078589E-4],"split_indices":[3,6,3,0,3,10,4,0,0,0,0,2147483647,2147483647],"split_type":[0,0,0,0,0,0,0,0,0,0,0,0,0],"sum_hessian":[5.11E3,1.1E1,5.099E3,5E0,6E0,1.1E1,5.088E3,4E0,2E0,6E0,5E0,3E0,5.085E3],"tree_param":{"num_deleted":"2","num_feature":"16","num_nodes":"13","size_leaf_vector":"0"}},{"base_weights":[-1.4095012E-6,-9.8281644E-2,6.3715107E-4,2.6170757E-1,-2.4418208E-1,8.4758304E-2,-1.0349291E-3,-2.5638953E-1,3.4776163E-1,-4.3672988E-1,-7.5452946E-2,1.195114E-1,-1.3477921E-1,-1.5038761E-1,5.0999527E-4],"categories":[],"categories_nodes":[],"categories_segments":[],"categories_sizes":[],"default_left":[false,true,false,false,false,true,false,false,false,false,false,false,false,false,false],"id":21,"left_children":[1,3,5,7,9,11,13,-1,-1,-1,-1,-1,-1,-1,-1],"loss_changes":[3.208182E-1,1.7971494E0,7.144861E-1,5.3500605E-1,7.4676967E-1,7.714391E-1,1.1493856E0,0E0,0E0,0E0,0E0,0E0,0E0,0E0,0E0],"parents":[2147483647,0,0,1,1,2,2,3,3,4,4,5,5,6,6],"right_children":[2,4,6,8,10,12,14,-1,-1,-1,-1,-1,-1,-1,-1],"split_conditions":[4.117647E-2,6.8627454E-2,6.4705886E-2,4.901961E-2,5.82353E-1,6.490196E-1,6.4705886E-2,-7.691686E-2,1.0432849E-1,-1.3101897E-1,-2.2635885E-2,3.5853423E-2,-4.0433764E-2,-4.5116287E-2,1.5299859E-4],"split_indices":[9,6,9,3,0,7,10,0,0,0,0,0,0,0,0],"split_type":[0,0,0,0,0,0,0,0,0,0,0,0,0,0,0],"sum_hessian":[5.11E3,3.2E1,5.078E3,9E0,2.3E1,9.8E1,4.98E3,1E0,8E0,1E1,1.3E1,8.5E1,1.3E1,5E1,4.93E3],"tree_param":{"num_deleted":"0","num_feature":"16","num_nodes":"15","size_leaf_vector":"0"}},{"base_weights":[-3.5386558E-5,-2.363392E-3,2.9628001E-2,4.2978213E-3,-3.73624E-2,-1.5312527E-1,5.1491372E-2,2.4389087E-3,1.0246065E-1,-3.113229E-1,-2.7980417E-2,3.5658073E-1,-2.040901E-1,3.704667E-2,3.022155E-1],"categories":[],"categories_nodes":[],"categories_segments":[],"categories_sizes":[],"default_left":[true,true,false,true,false,false,true,false,false,false,false,false,false,false,false],"id":22,"left_children":[1,3,5,7,9,11,13,-1,-1,-1,-1,-1,-1,-1,-1],"loss_changes":[3.5301793E-1,1.1052246E0,1.4942487E0,7.2655237E-1,1.9395709E0,1.1118579E0,1.1948085E0,0E0,0E0,0E0,0E0,0E0,0E0,0E0,0E0],"parents":[2147483647,0,0,1,1,2,2,3,3,4,4,5,5,6,6],"right_children":[2,4,6,8,10,12,14,-1,-1,-1,-1,-1,-1,-1,-1],"split_conditions":[9.470588E-1,7.3921573E-1,1.2352942E-1,7.117647E-1,7.4705887E-1,1.21568635E-1,9.901961E-1,7.316726E-4,3.0738197E-2,-9.339687E-2,-8.394126E-3,1.0697422E-1,-6.1227035E-2,1.1114001E-2,9.066465E-2],"split_indices":[8,8,4,8,8,2,11,0,0,0,0,0,0,0,0],"split_type":[0,0,0,0,0,0,0,0,0,0,0,0,0,0,0],"sum_hessian":[5.11E3,4.739E3,3.71E2,3.982E3,7.57E2,3.9E1,3.32E2,3.909E3,7.3E1,2.4E1,7.33E2,3E0,3.6E1,3.15E2,1.7E1],"tree_param":{"num_deleted":"0","num_feature":"16","num_nodes":"15","size_leaf_vector":"0"}},{"base_weights":[-9.656208E-6,-4.8669264E-2,1.150068E-3,3.649481E-1,-6.251237E-2,1.7326087E-1,4.230467E-4,-9.2019156E-2,1.4230126E-1,-4.9767573E-3,4.1146404E-1,-1.1005566E-1,1.3411907E-3],"categories":[],"categories_nodes":[],"categories_segments":[],"categories_sizes":[],"default_left":[false,false,false,false,false,false,false,false,false,false,false,false,false],"id":23,"left_children":[1,3,5,-1,7,9,11,-1,-1,-1,-1,-1,-1],"loss_changes":[2.8847852E-1,7.0417774E-1,6.2469196E-1,0E0,7.1412796E-1,8.9363974E-1,5.045856E-1,0E0,0E0,0E0,0E0,0E0,0E0],"parents":[2147483647,0,0,1,1,2,2,4,4,5,5,6,6],"right_children":[2,4,6,-1,8,10,12,-1,-1,-1,-1,-1,-1],"split_conditions":[6.0784318E-2,4.509804E-2,4.901961E-2,1.09484434E-1,6.8627454E-2,3.7254903E-2,4.509804E-2,-2.7605748E-2,4.269038E-2,-1.4930273E-3,1.23439215E-1,-3.30167E-2,4.0235723E-4],"split_indices":[8,9,6,0,7,6,9,0,0,0,0,0,0],"split_type":[0,0,0,0,0,0,0,0,0,0,0,0,0],"sum_hessian":[5.11E3,1.18E2,4.992E3,3E0,1.15E2,2E1,4.972E3,1.01E2,1.4E1,1.2E1,8E0,4E1,4.932E3],"tree_param":{"num_deleted":"0","num_feature":"16","num_nodes":"13","size_leaf_vector":"0"}},{"base_weights":[3.510376E-5,1.5547713E-3,-3.3438813E-2,7.735228E-4,2.3949426E-1,-3.3092618E-1,-1.931528E-2,-1.54692E-3,4.2304654E-2,2.897551E-1,-2.5720918E-1,2.0552185E-1,-4.1336727E-1,-1.1933724E-1,3.4792364E-2],"categories":[],"categories_nodes":[],"categories_segments":[],"categories_sizes":[],"default_left":[true,true,false,true,true,false,false,true,true,true,true,false,false,false,false],"id":24,"left_children":[1,3,5,-1,-1,11,13,-1,-1,-1,-1,-1,-1,-1,-1],"loss_changes":[2.6004463E-1,9.088162E-1,9.2635727E-1,4.6987218E-1,4.7396344E-1,5.2720976E-1,1.1568979E0,0E0,0E0,0E0,0E0,0E0,0E0,0E0,0E0],"parents":[2147483647,0,0,1,1,2,2,3,3,4,4,5,5,6,6],"right_children":[2,4,6,-1,-1,12,14,-1,-1,-1,-1,-1,-1,-1,-1],"split_conditions":[9.509804E-1,9.5882356E-1,7.254902E-2,2.3205686E-4,7.184828E-2,1.764706E-2,9.666667E-1,-4.6407603E-4,1.2691396E-2,8.6926535E-2,-7.716276E-2,6.1656557E-2,-1.2401018E-1,-3.5801172E-2,1.0437709E-2],"split_indices":[2,1,3,1,3,3,2,2147483647,2147483647,2147483647,2147483647,0,0,0,0],"split_type":[0,0,0,0,0,0,0,0,0,0,0,0,0,0,0],"sum_hessian":[5.11E3,4.889E3,2.21E2,4.874E3,1.5E1,9E0,2.12E2,4.617E3,2.57E2,1.4E1,1E0,1E0,8E0,7.4E1,1.38E2],"tree_param":{"num_deleted":"4","num_feature":"16","num_nodes":"15","size_leaf_vector":"0"}},{"base_weights":[2.1515452E-5,5.1886626E-3,-1.0285548E-2,-8.263007E-4,1.2482876E-1,6.304862E-3,-3.6743972E-2,9.7654446E-4,-7.399273E-2,-6.00237E-2,1.4963585E-1,-8.135981E-3,8.7279245E-2,-1.687448E-1,-2.0993885E-2],"categories":[],"categories_nodes":[],"categories_segments":[],"categories_sizes":[],"default_left":[true,true,true,true,false,true,false,true,true,false,false,false,false,false,false],"id":25,"left_children":[1,3,5,-1,9,11,13,-1,-1,-1,-1,-1,-1,-1,-1],"loss_changes":[2.7225557E-1,2.4504461E0,7.495298E-1,4.2784908E-1,7.564428E-1,1.2285153E0,1.3644557E0,0E0,0E0,0E0,0E0,0E0,0E0,0E0,0E0],"parents":[2147483647,0,0,1,1,2,2,3,3,4,4,5,5,6,6],"right_children":[2,4,6,-1,10,12,14,-1,-1,-1,-1,-1,-1,-1,-1],"split_conditions":[8.647059E-1,8.137255E-1,5.5098045E-1,-2.4789022E-4,4.5686275E-1,3.4705883E-1,6.333333E-1,2.9296335E-4,-2.219782E-2,-1.800711E-2,4.4890758E-2,-2.4407944E-3,2.6183775E-2,-5.0623443E-2,-6.298166E-3],"split_indices":[3,3,8,4,4,8,8,2147483647,2147483647,0,0,0,0,0,0],"split_type":[0,0,0,0,0,0,0,0,0,0,0,0,0,0,0],"sum_hessian":[5.11E3,3.404E3,1.706E3,3.242E3,1.62E2,1.049E3,6.57E2,3.165E3,7.7E1,1.9E1,1.43E2,8.91E2,1.58E2,6.9E1,5.88E2],"tree_param":{"num_deleted":"2","num_feature":"16","num_nodes":"15","size_leaf_vector":"0"}},{"base_weights":[1.3783778E-5,7.6402695E-4,-7.443709E-2,-1.8639705E-3,2.8231412E-2,-1.560479E-2,-3.8871008E-1,2.2989053E-3,-6.0355116E-2,3.602115E-2,-1.572614E-1,-2.11216E-1,8.272098E-2],"categories":[],"categories_nodes":[],"categories_segments":[],"categories_sizes":[],"default_left":[true,true,true,true,true,false,false,false,false,false,false,false,false],"id":26,"left_children":[1,3,5,7,9,11,-1,-1,-1,-1,-1,-1,-1],"loss_changes":[2.855382E-1,3.6537692E-1,9.368937E-1,1.1250689E0,6.443285E-1,8.637514E-1,0E0,0E0,0E0,0E0,0E0,0E0,0E0],"parents":[2147483647,0,0,1,1,2,2,3,3,4,4,5,5],"right_children":[2,4,6,8,10,12,-1,-1,-1,-1,-1,-1,-1],"split_conditions":[9.862745E-1,9E-1,7.529412E-1,7.6666665E-1,9.7843134E-1,2.6666668E-1,-1.1661303E-1,6.896716E-4,-1.8106535E-2,1.0806345E-2,-4.717842E-2,-6.3364804E-2,2.4816295E-2],"split_indices":[1,1,8,1,8,7,0,0,0,0,0,0,0],"split_type":[0,0,0,0,0,0,0,0,0,0,0,0,0],"sum_hessian":[5.11E3,5.06E3,5E1,4.619E3,4.41E2,4.3E1,7E0,4.313E3,3.06E2,4.24E2,1.7E1,1.4E1,2.9E1],"tree_param":{"num_deleted":"0","num_feature":"16","num_nodes":"13","size_leaf_vector":"0"}},{"base_weights":[-3.1243533E-5,5.0402344E-3,-1.0835677E-2,-7.356731E-4,7.715238E-2,-1.926609E-1,-6.616285E-3,-6.7935446E-3,4.6995036E-2,-8.2565566E-5,1.3188232E-1,-2.5104278E-1,3.5175022E-1,-6.8837225E-2,6.4928336E-3],"categories":[],"categories_nodes":[],"categories_segments":[],"categories_sizes":[],"default_left":[true,true,false,true,true,false,false,false,false,false,false,false,false,false,false],"id":27,"left_children":[1,3,5,7,9,11,13,-1,-1,-1,-1,-1,-1,-1,-1],"loss_changes":[2.8010902E-1,1.4491059E0,1.2515497E0,9.319493E-1,1.0905935E0,1.2643027E0,1.3030586E0,0E0,0E0,0E0,0E0,0E0,0E0,0E0,0E0],"parents":[2147483647,0,0,1,1,2,2,3,3,4,4,5,5,6,6],"right_children":[2,4,6,8,10,12,14,-1,-1,-1,-1,-1,-1,-1,-1],"split_conditions":[9.431373E-1,9.3921566E-1,6.4705886E-2,9.27451E-1,1.7843138E-1,9.941176E-1,9.627451E-1,-2.0380635E-3,1.4098511E-2,-2.4769672E-5,3.95647E-2,-7.531284E-2,1.0552507E-1,-2.065117E-2,1.9478501E-3],"split_indices":[11,9,1,6,6,10,9,0,0,0,0,0,0,0,0],"split_type":[0,0,0,0,0,0,0,0,0,0,0,0,0,0,0],"sum_hessian":[5.11E3,3.478E3,1.632E3,3.221E3,2.57E2,3.6E1,1.596E3,2.859E3,3.62E2,1.07E2,1.5E2,3.3E1,3E0,2.77E2,1.319E3],"tree_param":{"num_deleted":"0","num_feature":"16","num_nodes":"15","size_leaf_vector":"0"}},{"base_weights":[-9.528935E-6,7.149929E-2,-7.7296636E-4,2.2612478E-1,-5.05172E-2,-6.154874E-2,3.1552798E-4,-8.598787E-2,3.5969988E-1,-3.1584483E-1,7.2382495E-2,9.133123E-2,-1.5326963E-1,4.6029888E-2,-9.801242E-4],"categories":[],"categories_nodes":[],"categories_segments":[],"categories_sizes":[],"default_left":[false,true,false,true,false,false,false,false,false,false,false,false,false,true,true],"id":28,"left_children":[1,3,5,7,9,11,-1,-1,-1,-1,-1,-1,-1,-1,-1],"loss_changes":[2.7907756E-1,1.0302336E0,3.346268E-1,1.0315014E0,1.0337309E0,1.261982E0,2.9441774E-1,0E0,0E0,0E0,0E0,0E0,0E0,0E0,0E0],"parents":[2147483647,0,0,1,1,2,2,3,3,4,4,5,5,6,6],"right_children":[2,4,6,8,10,12,-1,-1,-1,-1,-1,-1,-1,-1,-1],"split_conditions":[5.6862745E-2,1.6470589E-1,7.647059E-2,1.254902E-1,5.235294E-1,6.058824E-1,9.46584E-5,-2.5796363E-2,1.0790997E-1,-9.475345E-2,2.1714749E-2,2.739937E-2,-4.5980893E-2,1.3808967E-2,-2.9403728E-4],"split_indices":[0,11,0,5,10,5,11,0,0,0,0,0,0,2147483647,2147483647],"split_type":[0,0,0,0,0,0,0,0,0,0,0,0,0,0,0],"sum_hessian":[5.11E3,5.3E1,5.057E3,2.3E1,3E1,8.8E1,4.969E3,7E0,1.6E1,9E0,2.1E1,3.3E1,5.5E1,1.36E2,4.833E3],"tree_param":{"num_deleted":"2","num_feature":"16","num_nodes":"15","size_leaf_vector":"0"}},{"base_weights":[-8.50586E-6,4.005689E-3,-1.2637098E-2,-3.0293209E-3,4.1565176E-2,-8.620748E-2,-9.5068285E-4,1.1643581E-4,-1.4674713E-1,-5.7537373E-2,7.273795E-2,-3.400578E-2,-2.5370783E-1,-7.902744E-3,9.2257366E-2],"categories":[],"categories_nodes":[],"categories_segments":[],"categories_sizes":[],"default_left":[true,true,false,true,false,true,true,false,false,false,false,false,false,false,false],"id":29,"left_children":[1,3,5,7,9,11,13,-1,-1,-1,-1,-1,-1,-1,-1],"loss_changes":[2.5914577E-1,1.0250794E0,1.0600194E0,1.477484E0,1.8948371E0,1.4690752E0,6.9083637E-1,0E0,0E0,0E0,0E0,0E0,0E0,0E0,0E0],"parents":[2147483647,0,0,1,1,2,2,3,3,4,4,5,5,6,6],"right_children":[2,4,6,8,10,12,14,-1,-1,-1,-1,-1,-1,-1,-1],"split_conditions":[7.0000005E-1,4.8431373E-1,6.529412E-1,4.4117647E-1,1.7843138E-1,5.470588E-1,9.901961E-1,3.4930745E-5,-4.402414E-2,-1.7261213E-2,2.1821385E-2,-1.02017345E-2,-7.611235E-2,-2.3708234E-3,2.767721E-2],"split_indices":[8,6,6,6,11,1,11,0,0,0,0,0,0,0,0],"split_type":[0,0,0,0,0,0,0,0,0,0,0,0,0,0,0],"sum_hessian":[5.11E3,3.878E3,1.232E3,3.267E3,6.11E2,1.68E2,1.064E3,3.198E3,6.9E1,1.46E2,4.65E2,1.29E2,3.9E1,9.91E2,7.3E1],"tree_param":{"num_deleted":"0","num_feature":"16","num_nodes":"15","size_leaf_vector":"0"}},{"base_weights":[-2.56019E-5,2.7577127E-3,-1.771463E-2,-1.6040606E-2,8.66877E-3,4.761314E-2,-4.4391748E-2,-1.2128432E-2,-1.6483358E-1,1.9555354E-1,6.529694E-3,1.2463789E-1,-3.7049092E-2,-1.6066688E-1,-2.481645E-2],"categories":[],"categories_nodes":[],"categories_segments":[],"categories_sizes":[],"default_left":[true,false,true,false,false,true,false,false,false,false,false,false,false,false,false],"id":30,"left_children":[1,3,5,7,9,11,13,-1,-1,-1,-1,-1,-1,-1,-1],"loss_changes":[2.5168452E-1,4.90947E-1,1.2133294E0,6.132847E-1,1.3423191E0,1.3218772E0,1.1204164E0,0E0,0E0,0E0,0E0,0E0,0E0,0E0,0E0],"parents":[2147483647,0,0,1,1,2,2,3,3,4,4,5,5,6,6],"right_children":[2,4,6,8,10,12,14,-1,-1,-1,-1,-1,-1,-1,-1],"split_conditions":[9.5E0,2.1372549E-1,1.0784314E-1,2.0196079E-1,2.254902E-1,1.5490197E-1,3.0588236E-1,-3.63853E-3,-4.9450073E-2,5.8666065E-2,1.9589083E-3,3.739137E-2,-1.1114728E-2,-4.8200067E-2,-7.4449354E-3],"split_indices":[13,4,10,4,4,2,0,0,0,0,0,0,0,0,0],"split_type":[0,0,0,0,0,0,0,0,0,0,0,0,0,0,0],"sum_hessian":[5.11E3,4.416E3,6.94E2,1.056E3,3.36E3,2.01E2,4.93E2,1.03E3,2.6E1,3.7E1,3.323E3,1.05E2,9.6E1,7E1,4.23E2],"tree_param":{"num_deleted":"0","num_feature":"16","num_nodes":"15","size_leaf_vector":"0"}},{"base_weights":[-2.2192271E-5,1.0884457E-2,-4.225237E-3,-9.699247E-3,5.9683993E-2,-5.921448E-2,1.6277032E-3,1.6214909E-2,-4.172323E-2,7.020427E-2,-3.3977416E-1,-1.7205271E-1,-4.352356E-2,1.8127903E-1,-1.671278E-4],"categories":[],"categories_nodes":[],"categories_segments":[],"categories_sizes":[],"default_left":[false,false,false,false,false,false,false,false,false,false,false,false,false,false,false],"id":31,"left_children":[1,3,5,7,9,11,13,-1,-1,-1,-1,-1,-1,-1,-1],"loss_changes":[2.3434001E-1,1.4289427E0,1.1877182E0,8.3138084E-1,1.7972714E0,6.210519E-1,1.0757028E0,0E0,0E0,0E0,0E0,0E0,0E0,0E0,0E0],"parents":[2147483647,0,0,1,1,2,2,3,3,4,4,5,5,6,6],"right_children":[2,4,6,8,10,12,14,-1,-1,-1,-1,-1,-1,-1,-1],"split_conditions":[2.764706E-1,1.7450981E-1,4.7254902E-1,1.1960784E-1,9.098039E-1,1.1960784E-1,4.9215686E-1,4.864473E-3,-1.2516969E-2,2.1061283E-2,-1.0193225E-1,-5.1615816E-2,-1.3057069E-2,5.4383714E-2,-5.0138344E-5],"split_indices":[1,0,1,0,0,3,1,0,0,0,0,0,0,0,0],"split_type":[0,0,0,0,0,0,0,0,0,0,0,0,0,0,0],"sum_hessian":[5.11E3,1.421E3,3.689E3,1E3,4.21E2,3.54E2,3.335E3,5.53E2,4.47E2,4.11E2,1E1,4.2E1,3.12E2,3.2E1,3.303E3],"tree_param":{"num_deleted":"0","num_feature":"16","num_nodes":"15","size_leaf_vector":"0"}},{"base_weights":[-3.4884164E-5,1.693949E-2,-2.9443242E-3,1.1771471E-1,2.0982008E-3,-9.184979E-2,-6.881027E-4,7.578774E-2,2.8364044E-1,-9.004444E-2,1.6420558E-2,-3.876025E-1,-3.233991E-2,4.841884E-2,-3.095492E-3],"categories":[],"categories_nodes":[],"categories_segments":[],"categories_sizes":[],"default_left":[false,false,false,false,false,false,false,false,false,false,false,false,false,false,false],"id":32,"left_children":[1,3,5,7,9,11,13,-1,-1,-1,-1,-1,-1,-1,-1],"loss_changes":[2.5246128E-1,1.1184874E0,8.7531334E-1,6.4635277E-1,8.6324257E-1,1.8882875E0,5.034104E-1,0E0,0E0,0E0,0E0,0E0,0E0,0E0,0E0],"parents":[2147483647,0,0,1,1,2,2,3,3,4,4,5,5,6,6],"right_children":[2,4,6,8,10,12,14,-1,-1,-1,-1,-1,-1,-1,-1],"split_conditions":[1.3137256E-1,1.1176471E-1,1.4313726E-1,1.3725491E-1,1.9803922E-1,1.4901961E-1,1.7058824E-1,2.2736322E-2,8.5092135E-2,-2.7013334E-2,4.9261674E-3,-1.1628076E-1,-9.701973E-3,1.4525652E-2,-9.2864764E-4],"split_indices":[5,2,5,0,0,0,5,0,0,0,0,0,0,0,0],"split_type":[0,0,0,0,0,0,0,0,0,0,0,0,0,0,0],"sum_hessian":[5.11E3,7.47E2,4.363E3,9.5E1,6.52E2,1.07E2,4.256E3,7.7E1,1.8E1,8.7E1,5.65E2,1.7E1,9E1,1.98E2,4.058E3],"tree_param":{"num_deleted":"0","num_feature":"16","num_nodes":"15","size_leaf_vector":"0"}},{"base_weights":[-2.96372E-5,4.3259794E-3,-1.0537761E-2,-1.9332118E-3,9.600034E-2,-2.1920761E-1,-4.5153373E-3,1.5354811E-2,-1.1099992E-2,3.8298678E-2,2.0869337E-1,-8.797553E-2,-3.734372E-1,-6.1308894E-2,8.220511E-3],"categories":[],"categories_nodes":[],"categories_segments":[],"categories_sizes":[],"default_left":[true,true,false,true,false,false,false,false,false,false,false,false,false,false,false],"id":33,"left_children":[1,3,5,7,9,11,13,-1,-1,-1,-1,-1,-1,-1,-1],"loss_changes":[2.339728E-1,2.0739257E0,1.8815442E0,5.364516E-1,1.494102E0,8.1722116E-1,1.0543725E0,0E0,0E0,0E0,0E0,0E0,0E0,0E0,0E0],"parents":[2147483647,0,0,1,1,2,2,3,3,4,4,5,5,6,6],"right_children":[2,4,6,8,10,12,14,-1,-1,-1,-1,-1,-1,-1,-1],"split_conditions":[6.1372554E-1,5.352942E-1,6.254902E-1,1.1960784E-1,9.705882E-1,7.647059E-1,1.7450981E-1,4.6064435E-3,-3.3299979E-3,1.1489604E-2,6.260801E-2,-2.6392661E-2,-1.1203116E-1,-1.8392669E-2,2.4661534E-3],"split_indices":[6,6,6,5,9,8,10,0,0,0,0,0,0,0,0],"split_type":[0,0,0,0,0,0,0,0,0,0,0,0,0,0,0],"sum_hessian":[5.11E3,3.613E3,1.497E3,3.383E3,2.3E2,4.1E1,1.456E3,1.172E3,2.211E3,1.53E2,7.7E1,2.3E1,1.8E1,2.66E2,1.19E3],"tree_param":{"num_deleted":"0","num_feature":"16","num_nodes":"15","size_leaf_vector":"0"}},{"base_weights":[-3.619498E-5,4.8793815E-3,-1.247448E-2,6.965519E-2,2.7419382E-3,5.036456E-3,-4.997628E-2,-3.3211222E-1,8.6816095E-2,-8.335712E-2,4.8283967E-3,-5.203893E-2,2.6136307E-2,-2.316759E-1,-3.6791444E-2],"categories":[],"categories_nodes":[],"categories_segments":[],"categories_sizes":[],"default_left":[true,false,false,false,false,false,true,false,false,false,false,false,false,false,false],"id":34,"left_children":[1,3,5,7,9,11,13,-1,-1,-1,-1,-1,-1,-1,-1],"loss_changes":[3.1255424E-1,5.071068E-1,9.511411E-1,8.3551157E-1,6.377726E-1,1.1911908E0,1.0958848E0,0E0,0E0,0E0,0E0,0E0,0E0,0E0,0E0],"parents":[2147483647,0,0,1,1,2,2,3,3,4,4,5,5,6,6],"right_children":[2,4,6,8,10,12,14,-1,-1,-1,-1,-1,-1,-1,-1],"split_conditions":[9.5490193E-1,7.254902E-2,9.470588E-1,2.7450982E-2,8.431373E-2,9.705882E-1,6.4705886E-2,-9.963367E-2,2.6044829E-2,-2.5007136E-2,1.4485191E-3,-1.5611679E-2,7.840892E-3,-6.950277E-2,-1.10374335E-2],"split_indices":[11,1,4,0,1,11,8,0,0,0,0,0,0,0,0],"split_type":[0,0,0,0,0,0,0,0,0,0,0,0,0,0,0],"sum_hessian":[5.11E3,3.663E3,1.447E3,1.16E2,3.547E3,9.87E2,4.6E2,4E0,1.12E2,8.3E1,3.464E3,2.66E2,7.21E2,3E1,4.3E2],"tree_param":{"num_deleted":"0","num_feature":"16","num_nodes":"15","size_leaf_vector":"0"}},{"base_weights":[-6.161857E-5,-1.2619312E-1,3.0958687E-4,2.5157434E-1,-2.8643352E-1,1.794101E-3,-2.9223777E-2,-3.4874108E-1,1.6832119E-1,-8.2805275E-4,1.1181586E-1,1.619495E-2,-1.0062994E-1],"categories":[],"categories_nodes":[],"categories_segments":[],"categories_sizes":[],"default_left":[false,true,true,false,true,true,true,true,true,false,false,false,false],"id":35,"left_children":[1,3,5,-1,-1,9,11,-1,-1,-1,-1,-1,-1],"loss_changes":[2.3933968E-1,9.800634E-1,2.2351864E-1,0E0,3.7038177E-1,1.4004422E0,7.9296494E-1,0E0,0E0,0E0,0E0,0E0,0E0],"parents":[2147483647,0,0,1,1,2,2,4,4,5,5,6,6],"right_children":[2,4,6,-1,-1,10,12,-1,-1,-1,-1,-1,-1],"split_conditions":[1.764706E-2,6.5E0,9.666667E-1,7.54723E-2,-8.593006E-2,9.470588E-1,1.6470589E-1,-1.0462233E-1,5.049636E-2,-2.4841583E-4,3.354476E-2,4.8584854E-3,-3.0188983E-2],"split_indices":[7,13,7,0,0,7,0,2147483647,2147483647,0,0,0,0],"split_type":[0,0,0,0,0,0,0,0,0,0,0,0,0],"sum_hessian":[5.11E3,1.4E1,5.096E3,4E0,1E1,4.853E3,2.43E2,9E0,1E0,4.741E3,1.12E2,1.49E2,9.4E1],"tree_param":{"num_deleted":"2","num_feature":"16","num_nodes":"13","size_leaf_vector":"0"}},{"base_weights":[-4.3617612E-5,-1.212878E-3,3.50132E-2,4.2629524E-4,-1.4438471E-1,1.6830005E-2,3.8975462E-1,-1.3042791E-3,5.2973118E-2,1.1077879E-1,-2.2410342E-1,3.5965022E-1,5.590192E-3],"categories":[],"categories_nodes":[],"categories_segments":[],"categories_sizes":[],"default_left":[true,true,true,true,false,false,false,true,true,false,false,false,false],"id":36,"left_children":[1,3,5,-1,9,11,-1,-1,-1,-1,-1,-1,-1],"loss_changes":[2.0954515E-1,1.1610405E0,1.0577452E0,4.449289E-1,1.1639391E0,6.068006E-1,0E0,0E0,0E0,0E0,0E0,0E0,0E0],"parents":[2147483647,0,0,1,1,2,2,3,3,4,4,5,5],"right_children":[2,4,6,-1,10,12,-1,-1,-1,-1,-1,-1,-1],"split_conditions":[9.82353E-1,9.7450984E-1,9.941176E-1,1.2788858E-4,6.843138E-1,3.9803922E-1,1.16926394E-1,-3.9128374E-4,1.5891936E-2,3.323364E-2,-6.723103E-2,1.0789507E-1,1.6770577E-3],"split_indices":[6,7,9,7,9,7,0,2147483647,2147483647,0,0,0,0],"split_type":[0,0,0,0,0,0,0,0,0,0,0,0,0],"sum_hessian":[5.11E3,4.946E3,1.64E2,4.891E3,5.5E1,1.57E2,7E0,4.736E3,1.55E2,1.3E1,4.2E1,4E0,1.53E2],"tree_param":{"num_deleted":"2","num_feature":"16","num_nodes":"13","size_leaf_vector":"0"}},{"base_weights":[7.148182E-6,-3.3018028E-3,1.0689389E-2,-1.7858406E-3,-2.7065015E-1,1.0699861E-1,-4.31452E-3,-2.953317E-1,-1.1034198E-3,-4.3424705E-1,6.992532E-2,1.9853687E-1,3.7693534E-2,-1.5195602E-1,2.9314745E-3],"categories":[],"categories_nodes":[],"categories_segments":[],"categories_sizes":[],"default_left":[true,true,false,false,false,false,false,false,false,false,false,false,false,false,false],"id":37,"left_children":[1,3,5,7,9,11,13,-1,-1,-1,-1,-1,-1,-1,-1],"loss_changes":[1.8069386E-1,1.5813636E0,1.7474844E0,7.7732337E-1,1.2561408E0,1.0265992E0,1.1205361E0,0E0,0E0,0E0,0E0,0E0,0E0,0E0,0E0],"parents":[2147483647,0,0,1,1,2,2,3,3,4,4,5,5,6,6],"right_children":[2,4,6,8,10,12,14,-1,-1,-1,-1,-1,-1,-1,-1],"split_conditions":[7.313726E-1,7.6666665E-1,7.941177E-1,3.7254903E-2,8.372549E-1,5.529412E-1,3.1960785E-1,-8.859951E-2,-3.3102595E-4,-1.3027412E-1,2.0977598E-2,5.9561063E-2,1.1308061E-2,-4.558681E-2,8.794424E-4],"split_indices":[0,1,0,2,2,8,1,0,0,0,0,0,0,0,0],"split_type":[0,0,0,0,0,0,0,0,0,0,0,0,0,0,0],"sum_hessian":[5.11E3,3.902E3,1.208E3,3.881E3,2.1E1,1.62E2,1.046E3,8E0,3.873E3,1.4E1,7E0,6.9E1,9.3E1,4.8E1,9.98E2],"tree_param":{"num_deleted":"0","num_feature":"16","num_nodes":"15","size_leaf_vector":"0"}},{"base_weights":[-2.8664606E-5,1.0160504E-2,-4.413363E-3,-7.707498E-3,4.7490682E-2,-6.709255E-2,7.846555E-5,9.976696E-3,-7.010688E-2,-2.8191546E-2,7.458214E-2,-8.848571E-2,2.1748194E-1,1.5134163E-1,-1.155427E-3],"categories":[],"categories_nodes":[],"categories_segments":[],"categories_sizes":[],"default_left":[false,false,false,false,true,true,false,false,false,false,false,false,false,false,false],"id":38,"left_children":[1,3,5,7,9,11,13,-1,-1,-1,-1,-1,-1,-1,-1],"loss_changes":[2.2838607E-1,1.0262362E0,1.0062442E0,1.149425E0,1.0231726E0,1.4742633E0,6.228142E-1,0E0,0E0,0E0,0E0,0E0,0E0,0E0,0E0],"parents":[2147483647,0,0,1,1,2,2,3,3,4,4,5,5,6,6],"right_children":[2,4,6,8,10,12,14,-1,-1,-1,-1,-1,-1,-1,-1],"split_conditions":[3.392157E-1,1.627451E-1,4.7254902E-1,1.3529412E-1,1.0392157E-1,9.27451E-1,8.627451E-2,2.993009E-3,-2.1032065E-2,-8.457464E-3,2.2374641E-2,-2.6545715E-2,6.5244585E-2,4.540249E-2,-3.466281E-4],"split_indices":[1,2,1,1,10,6,2,0,0,0,0,0,0,0,0],"split_type":[0,0,0,0,0,0,0,0,0,0,0,0,0,0,0],"sum_hessian":[5.11E3,1.537E3,3.573E3,1.04E3,4.97E2,2.38E2,3.335E3,8.11E2,2.29E2,1.31E2,3.66E2,2.22E2,1.6E1,2.6E1,3.309E3],"tree_param":{"num_deleted":"0","num_feature":"16","num_nodes":"15","size_leaf_vector":"0"}},{"base_weights":[-4.4898115E-6,3.8701154E-2,-1.1263917E-3,5.4301184E-2,-3.2914972E-1,-1.3557889E-1,-6.2543055E-5,1.5816977E-3,1.4523712E-1,1.522179E-1,-2.1475928E-1,-1.2817106E-3,4.35823E-2],"categories":[],"categories_nodes":[],"categories_segments":[],"categories_sizes":[],"default_left":[false,true,false,false,false,false,true,false,false,false,false,true,true],"id":39,"left_children":[1,3,5,7,-1,9,-1,-1,-1,-1,-1,-1,-1],"loss_changes":[2.2198331E-1,8.442149E-1,7.1059984E-1,6.661496E-1,0E0,9.214167E-1,2.6238298E-1,0E0,0E0,0E0,0E0,0E0,0E0],"parents":[2147483647,0,0,1,1,2,2,3,3,5,5,6,6],"right_children":[2,4,6,8,-1,10,-1,-1,-1,-1,-1,-1,-1],"split_conditions":[6.0784318E-2,9.6862745E-1,6.4705886E-2,5.294118E-1,-9.874492E-2,3.1176472E-1,-1.8762918E-5,4.7450935E-4,4.3571137E-2,4.566537E-2,-6.4427786E-2,-3.845132E-4,1.3074691E-2],"split_indices":[11,8,10,8,0,3,8,0,0,0,0,2147483647,2147483647],"split_type":[0,0,0,0,0,0,0,0,0,0,0,0,0],"sum_hessian":[5.11E3,1.43E2,4.967E3,1.38E2,5E0,3.8E1,4.929E3,8.8E1,5E1,8E0,3E1,4.796E3,1.33E2],"tree_param":{"num_deleted":"2","num_feature":"16","num_nodes":"13","size_leaf_vector":"0"}},{"base_weights":[-1.7508559E-5,3.7102865E-3,-9.45026E-3,-9.060835E-4,3.9272744E-2,-1.7272936E-1,-5.7562715E-3,-4.7647315E-3,3.5891823E-2,-1.1603875E-2,8.900955E-2,-2.2401696E-1,2.4228811E-1,2.938719E-1,-7.452207E-3],"categories":[],"categories_nodes":[],"categories_segments":[],"categories_sizes":[],"default_left":[true,true,false,true,true,false,false,true,true,false,false,false,false,false,false],"id":40,"left_children":[1,3,5,-1,9,11,13,-1,-1,-1,-1,-1,-1,-1,-1],"loss_changes":[1.7975502E-1,6.015524E-1,8.7236845E-1,4.6078715E-1,1.0663483E0,7.3540473E-1,7.222386E-1,0E0,0E0,0E0,0E0,0E0,0E0,0E0,0E0],"parents":[2147483647,0,0,1,1,2,2,3,3,4,4,5,5,6,6],"right_children":[2,4,6,-1,10,12,14,-1,-1,-1,-1,-1,-1,-1,-1],"split_conditions":[9.5490193E-1,9.3921566E-1,6.4705886E-2,-2.7182506E-4,5.9803927E-1,9.941176E-1,6.27451E-2,-1.4294195E-3,1.0767547E-2,-3.4811627E-3,2.6702868E-2,-6.7205094E-2,7.2686434E-2,8.816157E-2,-2.2356622E-3],"split_indices":[11,9,1,7,3,11,0,2147483647,2147483647,0,0,0,0,0,0],"split_type":[0,0,0,0,0,0,0,0,0,0,0,0,0,0,0],"sum_hessian":[5.11E3,3.663E3,1.447E3,3.243E3,4.2E2,3.1E1,1.416E3,2.936E3,3.07E2,2.08E2,2.12E2,2.8E1,3E0,7E0,1.409E3],"tree_param":{"num_deleted":"2","num_feature":"16","num_nodes":"15","size_leaf_vector":"0"}},{"base_weights":[1.0106059E-5,1.24791004E-1,-2.8349803E-4,1.9151916E-1,-3.0460933E-1,-1.6464238E-1,1.0412037E-4,-1.07327074E-1,2.6985466E-1,-3.0079818E-1,2.164646E-2,-2.7110717E-1,3.1740018E-4],"categories":[],"categories_nodes":[],"categories_segments":[],"categories_sizes":[],"default_left":[false,true,true,true,true,true,true,true,true,true,true,true,true],"id":41,"left_children":[-1,-1,-1,-1,-1,-1,-1,-1,-1,-1,-1,-1,-1],"loss_changes":[1.872829E-1,4.021756E-1,3.2493064E-1,2.8647566E-1,0E0,3.1088293E-1,2.9445362E-1,0E0,0E0,0E0,0E0,0E0,0E0],"parents":[2147483647,0,0,1,1,2,2,3,3,5,5,6,6],"right_children":[-1,-1,-1,-1,-1,-1,-1,-1,-1,-1,-1,-1,-1],"split_conditions":[3.0318176E-6,3.74373E-2,-8.504941E-5,5.745575E-2,-9.13828E-2,-4.9392715E-2,3.123611E-5,-3.2198124E-2,8.09564E-2,-9.023946E-2,6.4939386E-3,-8.1332155E-2,9.522006E-5],"split_indices":[3,2147483647,2147483647,2147483647,2147483647,2147483647,2147483647,2147483647,2147483647,2147483647,2147483647,2147483647,2147483647],"split_type":[0,0,0,0,0,0,0,0,0,0,0,0,0],"sum_hessian":[5.11E3,1.1E1,5.099E3,1E1,1E0,1.1E1,5.088E3,2E0,8E0,6E0,5E0,3E0,5.085E3],"tree_param":{"num_deleted":"12","num_feature":"16","num_nodes":"13","size_leaf_vector":"0"}},{"base_weights":[7.068043E-6,-1.7227117E-2,1.9753997E-3,2.8090608E-1,-2.3573883E-2,6.1647907E-2,-1.1304312E-3,-1.4711058E-2,4.5193174E-1,-1.9745256E-1,-1.686568E-2,1.09833665E-2,1.9934185E-1,2.4960667E-3,-2.555585E-2],"categories":[],"categories_nodes":[],"categories_segments":[],"categories_sizes":[],"default_left":[false,false,false,false,false,false,true,false,false,false,false,false,false,true,true],"id":42,"left_children":[1,3,5,7,9,11,-1,-1,-1,-1,-1,-1,-1,-1,-1],"loss_changes":[1.734124E-1,9.9812543E-1,8.503762E-1,5.627877E-1,5.962063E-1,1.5814078E0,3.8644418E-1,0E0,0E0,0E0,0E0,0E0,0E0,0E0,0E0],"parents":[2147483647,0,0,1,1,2,2,3,3,4,4,5,5,6,6],"right_children":[2,4,6,8,10,12,-1,-1,-1,-1,-1,-1,-1,-1,-1],"split_conditions":[9.607843E-2,5.6862745E-2,1.2352942E-1,4.901961E-2,7.254902E-2,1.2352942E-1,-3.3912936E-4,-4.4133174E-3,1.3557953E-1,-5.923577E-2,-5.059704E-3,3.2950102E-3,5.980256E-2,7.488201E-4,-7.666755E-3],"split_indices":[4,6,5,8,6,4,13,0,0,0,0,0,0,2147483647,2147483647],"split_type":[0,0,0,0,0,0,0,0,0,0,0,0,0,0,0],"sum_hessian":[5.11E3,5.23E2,4.587E3,1E1,5.13E2,2.26E2,4.361E3,4E0,6E0,1.8E1,4.95E2,1.66E2,6E1,3.798E3,5.63E2],"tree_param":{"num_deleted":"2","num_feature":"16","num_nodes":"15","size_leaf_vector":"0"}},{"base_weights":[3.0318653E-5,1.2824614E-1,-2.713716E-4,1.9525784E-1,-3.0444127E-1,-1.6698581E-1,1.21798905E-4,-1.03955954E-1,2.7330047E-1,2.6441064E-1,-2.7970615E-1,4.015433E-3,-9.250109E-3],"categories":[],"categories_nodes":[],"categories_segments":[],"categories_sizes":[],"default_left":[false,true,false,true,true,true,true,true,true,false,false,true,true],"id":43,"left_children":[1,-1,5,-1,-1,9,-1,-1,-1,-1,-1,-1,-1],"loss_changes":[1.9773577E-1,4.07386E-1,3.3431104E-1,2.8527692E-1,0E0,6.574832E-1,1.8573874E-1,0E0,0E0,0E0,0E0,0E0,0E0],"parents":[2147483647,0,0,1,1,2,2,3,3,5,5,6,6],"right_children":[2,-1,6,-1,-1,10,-1,-1,-1,-1,-1,-1,-1],"split_conditions":[1.3725491E-2,3.8473845E-2,2.5490196E-2,5.8577355E-2,-9.133238E-2,5E0,3.6539674E-5,-3.1186787E-2,8.1990145E-2,7.9323195E-2,-8.391185E-2,1.20463E-3,-2.7750328E-3],"split_indices":[3,10,3,2147483647,2147483647,15,6,2147483647,2147483647,0,0,2147483647,2147483647],"split_type":[0,0,0,0,0,0,0,0,0,0,0,0,0],"sum_hessian":[5.11E3,1.1E1,5.099E3,1E1,1E0,1.1E1,5.088E3,2E0,8E0,2E0,9E0,3.595E3,1.493E3],"tree_param":{"num_deleted":"6","num_feature":"16","num_nodes":"13","size_leaf_vector":"0"}},{"base_weights":[2.7862208E-5,1.0276961E-2,-3.894914E-3,7.511316E-3,3.6259103E-1,-1.070465E-2,1.5947517E-2,-1.3880372E-1,1.1131724E-2,-4.384115E-3,-5.0773572E-2,5.220743E-2,-2.8922178E-2],"categories":[],"categories_nodes":[],"categories_segments":[],"categories_sizes":[],"default_left":[false,false,false,false,false,false,false,false,false,false,false,false,false],"id":44,"left_children":[1,3,5,7,-1,9,11,-1,-1,-1,-1,-1,-1],"loss_changes":[2.0552738E-1,1.376018E0,4.9971563E-1,7.458019E-1,0E0,6.9699395E-1,1.5389978E0,0E0,0E0,0E0,0E0,0E0,0E0],"parents":[2147483647,0,0,1,1,2,2,3,3,5,5,6,6],"right_children":[2,4,6,8,-1,10,12,-1,-1,-1,-1,-1,-1],"split_conditions":[2.3333333E-1,2.2941177E-1,9.82353E-1,5.2941177E-2,1.08777314E-1,9.5882356E-1,8.9215684E-1,-4.1641116E-2,3.3395174E-3,-1.3152345E-3,-1.5232072E-2,1.5662229E-2,-8.676654E-3],"split_indices":[2,2,9,9,0,11,5,0,0,0,0,0,0],"split_type":[0,0,0,0,0,0,0,0,0,0,0,0,0],"sum_hessian":[5.11E3,1.414E3,3.696E3,1.404E3,1E1,2.752E3,9.44E2,3.3E1,1.371E3,2.378E3,3.74E2,5.22E2,4.22E2],"tree_param":{"num_deleted":"0","num_feature":"16","num_nodes":"13","size_leaf_vector":"0"}},{"base_weights":[3.1418567E-5,2.6262265E-2,-1.6155143E-3,9.592797E-3,2.1895055E-1,-2.186141E-2,1.98305E-3,3.0089727E-2,-1.6814245E-1,3.1415448E-1,2.537131E-2,2.379252E-2,-4.9589217E-2,7.058057E-2,-6.1360066E-4],"categories":[],"categories_nodes":[],"categories_segments":[],"categories_sizes":[],"default_left":[false,false,false,false,false,true,false,false,false,true,true,false,false,false,false],"id":45,"left_children":[1,3,5,7,-1,11,13,-1,-1,-1,-1,-1,-1,-1,-1],"loss_changes":[2.2083987E-1,9.6792704E-1,3.5048148E-1,1.0214639E0,4.3433762E-1,9.202112E-1,7.27679E-1,0E0,0E0,0E0,0E0,0E0,0E0,0E0,0E0],"parents":[2147483647,0,0,1,1,2,2,3,3,4,4,5,5,6,6],"right_children":[2,4,6,8,-1,12,14,-1,-1,-1,-1,-1,-1,-1,-1],"split_conditions":[8.039216E-2,1.2745099E-1,1.3529412E-1,9.607843E-2,6.568517E-2,8.431373E-2,1.4705883E-1,9.026919E-3,-5.0442737E-2,9.424635E-2,7.611393E-3,7.1377563E-3,-1.4876765E-2,2.1174172E-2,-1.840802E-4],"split_indices":[11,9,11,9,3,4,9,0,0,2147483647,2147483647,0,0,0,0],"split_type":[0,0,0,0,0,0,0,0,0,0,0,0,0,0,0],"sum_hessian":[5.11E3,3.01E2,4.809E3,2.78E2,2.3E1,7.25E2,4.084E3,2.5E2,2.8E1,1.5E1,8E0,2.74E2,4.51E2,1.48E2,3.936E3],"tree_param":{"num_deleted":"2","num_feature":"16","num_nodes":"15","size_leaf_vector":"0"}},{"base_weights":[2.932594E-5,-4.5692367E-3,1.0775295E-2,6.3929113E-4,-9.6481375E-2,1.3497603E-1,6.3202856E-3,-1.4234368E-3,2.104556E-1,-3.1766707E-1,-6.598872E-2,-1.00848086E-1,2.4913874E-1,2.7246643E-2,-2.5923606E-2],"categories":[],"categories_nodes":[],"categories_segments":[],"categories_sizes":[],"default_left":[true,true,false,true,false,false,true,false,false,false,false,false,false,false,false],"id":46,"left_children":[1,3,5,7,9,11,13,-1,-1,-1,-1,-1,-1,-1,-1],"loss_changes":[2.5261447E-1,1.7139041E0,8.468262E-1,1.4670382E0,1.2739892E0,1.4520085E0,9.9933225E-1,0E0,0E0,0E0,0E0,0E0,0E0,0E0,0E0],"parents":[2147483647,0,0,1,1,2,2,3,3,4,4,5,5,6,6],"right_children":[2,4,6,8,10,12,14,-1,-1,-1,-1,-1,-1,-1,-1],"split_conditions":[8.411765E-1,8.019608E-1,8.5294116E-1,7.8627455E-1,1.392157E-1,3.4509805E-1,5.5098045E-1,-4.2703105E-4,6.313668E-2,-9.530012E-2,-1.9796617E-2,-3.0254427E-2,7.4741624E-2,8.173993E-3,-7.7770823E-3],"split_indices":[5,4,5,4,2,7,8,0,0,0,0,0,0,0,0],"split_type":[0,0,0,0,0,0,0,0,0,0,0,0,0,0,0],"sum_hessian":[5.11E3,3.579E3,1.531E3,3.388E3,1.91E2,5.2E1,1.479E3,3.356E3,3.2E1,2.2E1,1.69E2,1.7E1,3.5E1,8.97E2,5.82E2],"tree_param":{"num_deleted":"0","num_feature":"16","num_nodes":"15","size_leaf_vector":"0"}},{"base_weights":[1.9052693E-5,-9.422326E-3,3.4929295E-3,1.1043259E-1,-1.3188806E-2,9.8226085E-2,1.2345682E-3,3.815919E-1,3.5407107E-2,-2.8137218E-2,1.4715394E-2,3.7760548E-3,2.0410232E-1,-1.2439582E-1,3.2261391E-3],"categories":[],"categories_nodes":[],"categories_segments":[],"categories_sizes":[],"default_left":[false,false,false,false,false,false,false,false,false,false,false,false,false,false,false],"id":47,"left_children":[1,3,5,7,9,11,13,-1,-1,-1,-1,-1,-1,-1,-1],"loss_changes":[1.6766445E-1,6.2217426E-1,7.993789E-1,8.40931E-1,5.568567E-1,8.692305E-1,9.1388816E-1,0E0,0E0,0E0,0E0,0E0,0E0,0E0,0E0],"parents":[2147483647,0,0,1,1,2,2,3,3,4,4,5,5,6,6],"right_children":[2,4,6,8,10,12,14,-1,-1,-1,-1,-1,-1,-1,-1],"split_conditions":[2.5686276E-1,6.4705886E-2,3.2352942E-1,1.6666667E-1,9.666667E-1,2.8431374E-1,3.745098E-1,1.1447757E-1,1.0622133E-2,-8.441166E-3,4.4146185E-3,1.1328165E-3,6.12307E-2,-3.7318747E-2,9.6784177E-4],"split_indices":[4,6,4,2,9,4,4,0,0,0,0,0,0,0,0],"split_type":[0,0,0,0,0,0,0,0,0,0,0,0,0,0,0],"sum_hessian":[5.11E3,1.374E3,3.736E3,4.1E1,1.333E3,8.6E1,3.65E3,8E0,3.3E1,8.68E2,4.65E2,4.6E1,4E1,5.6E1,3.594E3],"tree_param":{"num_deleted":"0","num_feature":"16","num_nodes":"15","size_leaf_vector":"0"}},{"base_weights":[4.2110045E-5,-1.346803E-1,3.8557922E-4,-2.7014416E-1,2.00236E-2,4.3621384E-2,-6.1191386E-4,8.565965E-2,-3.4372142E-1,1.9285828E-1,-1.5781698E-1,3.270802E-1,-1.2351182E-2,-1.008888E-1,1.0649452E-3],"categories":[],"categories_nodes":[],"categories_segments":[],"categories_sizes":[],"default_left":[false,true,false,true,true,false,false,true,true,true,true,false,false,false,false],"id":48,"left_children":[1,-1,5,-1,-1,11,13,-1,-1,-1,-1,-1,-1,-1,-1],"loss_changes":[2.3655322E-1,2.7784747E-1,2.1993338E-1,2.126965E-1,2.4559544E-1,1.8286202E0,8.383362E-1,0E0,0E0,0E0,0E0,0E0,0E0,0E0,0E0],"parents":[2147483647,0,0,1,1,2,2,3,3,4,4,5,5,6,6],"right_children":[2,-1,6,-1,-1,12,14,-1,-1,-1,-1,-1,-1,-1,-1],"split_conditions":[1.3725491E-2,-4.0404093E-2,6.0784318E-2,-8.104325E-2,6.00708E-3,9.607843E-2,7.254902E-2,2.5697896E-2,-1.0311643E-1,5.7857487E-2,-4.7345094E-2,9.8124065E-2,-3.7053549E-3,-3.0266643E-2,3.1948357E-4],"split_indices":[5,11,5,2147483647,2147483647,11,5,2147483647,2147483647,2147483647,2147483647,0,0,0,0],"split_type":[0,0,0,0,0,0,0,0,0,0,0,0,0,0,0],"sum_hessian":[5.11E3,1.2E1,5.098E3,6E0,6E0,1.14E2,4.984E3,1E0,5E0,3E0,3E0,1.8E1,9.6E1,8.1E1,4.903E3],"tree_param":{"num_deleted":"6","num_feature":"16","num_nodes":"15","size_leaf_vector":"0"}},{"base_weights":[3.418855E-5,9.597128E-4,-3.515719E-2,1.7194858E-1,5.8114965E-4,1.1780883E-1,-1.11240685E-1,-1.0842064E-1,2.462996E-1,-2.7260393E-1,8.0098846E-4,2.2744738E-1,-5.3193923E-2,-1.982183E-1,4.7164455E-2],"categories":[],"categories_nodes":[],"categories_segments":[],"categories_sizes":[],"default_left":[true,false,false,true,true,false,true,true,true,true,true,false,false,false,false],"id":49,"left_children":[1,-1,5,-1,-1,11,13,-1,-1,-1,-1,-1,-1,-1,-1],"loss_changes":[1.6650142E-1,3.2232064E-1,1.537708E0,2.5600705E-1,2.9876012E-1,8.370325E-1,1.2217865E0,0E0,0E0,0E0,0E0,0E0,0E0,0E0,0E0],"parents":[2147483647,0,0,1,1,2,2,3,3,4,4,5,5,6,6],"right_children":[2,-1,6,-1,-1,12,14,-1,-1,-1,-1,-1,-1,-1,-1],"split_conditions":[9.941176E-1,2.8791383E-4,5.0392157E-1,5.1584575E-2,1.743449E-4,9.470588E-1,6.294118E-1,-3.2526195E-2,7.388988E-2,-8.178118E-2,2.4029655E-4,6.823421E-2,-1.5958177E-2,-5.9465494E-2,1.4149337E-2],"split_indices":[10,3,2,2147483647,2147483647,4,6,2147483647,2147483647,2147483647,2147483647,0,0,0,0],"split_type":[0,0,0,0,0,0,0,0,0,0,0,0,0,0,0],"sum_hessian":[5.11E3,4.98E3,1.3E2,1E1,4.97E3,4.3E1,8.7E1,2E0,8E0,3E0,4.967E3,2.6E1,1.7E1,5.6E1,3.1E1],"tree_param":{"num_deleted":"6","num_feature":"16","num_nodes":"15","size_leaf_vector":"0"}},{"base_weights":[2.535974E-5,5.8455055E-4,-6.0236912E-2,3.678268E-4,3.6614716E-1,-2.8652894E-1,1.6867014E-2,-3.4970033E-4,6.22915E-2,-1.8189937E-1,-3.966305E-1,1.1656566E-1,-2.2031769E-1],"categories":[],"categories_nodes":[],"categories_segments":[],"categories_sizes":[],"default_left":[true,true,false,true,true,false,true,true,true,true,true,false,false],"id":50,"left_children":[1,-1,5,-1,-1,-1,11,-1,-1,-1,-1,-1,-1],"loss_changes":[1.7226624E-1,4.0114552E-1,8.248891E-1,2.2498058E-1,0E0,6.609166E-2,8.769733E-1,0E0,0E0,0E0,0E0,0E0,0E0],"parents":[2147483647,0,0,1,1,2,2,3,3,5,5,6,6],"right_children":[2,-1,6,-1,-1,-1,12,-1,-1,-1,-1,-1,-1],"split_conditions":[9.901961E-1,1.7536517E-4,3.019608E-1,1.10348046E-4,1.09844156E-1,-8.595869E-2,4.117647E-1,-1.04910105E-4,1.8687451E-2,-5.4569814E-2,-1.18989155E-1,3.49697E-2,-6.609531E-2],"split_indices":[0,2,6,2147483647,2147483647,7,4,2147483647,2147483647,2147483647,2147483647,0,0],"split_type":[0,0,0,0,0,0,0,0,0,0,0,0,0],"sum_hessian":[5.11E3,5.064E3,4.6E1,5.062E3,2E0,1.1E1,3.5E1,5.005E3,5.7E1,7E0,4E0,2.5E1,1E1],"tree_param":{"num_deleted":"6","num_feature":"16","num_nodes":"13","size_leaf_vector":"0"}},{"base_weights":[-5.115119E-6,-4.1618623E-2,6.6487084E-4,5.29158E-2,-1.3513796E-1,3.8945176E-2,-3.745138E-4,2.67895E-1,-5.646365E-2,3.7482537E-2,-2.589726E-1,1.0108964E-1,-1.5109021E-2,-2.7196243E-2,1.6380808E-3],"categories":[],"categories_nodes":[],"categories_segments":[],"categories_sizes":[],"default_left":[false,true,false,false,true,true,true,false,false,false,false,true,true,true,true],"id":51,"left_children":[1,3,-1,7,9,-1,-1,-1,-1,-1,-1,-1,-1,-1,-1],"loss_changes":[1.4252473E-1,7.232555E-1,2.0018782E-1,9.7921294E-1,8.861392E-1,4.4829684E-1,2.644988E-1,0E0,0E0,0E0,0E0,0E0,0E0,0E0,0E0],"parents":[2147483647,0,0,1,1,2,2,3,3,4,4,5,5,6,6],"right_children":[2,4,-1,8,10,-1,-1,-1,-1,-1,-1,-1,-1,-1,-1],"split_conditions":[5.2941177E-2,5E0,1.9946125E-4,1.7450981E-1,5E0,1.1683553E-2,-1.12354144E-4,8.0368504E-2,-1.6939096E-2,1.1244762E-2,-7.769178E-2,3.0326894E-2,-4.5327065E-3,-8.158874E-3,4.914243E-4],"split_indices":[8,14,7,11,15,2147483647,2147483647,0,0,0,0,2147483647,2147483647,2147483647,2147483647],"split_type":[0,0,0,0,0,0,0,0,0,0,0,0,0,0,0],"sum_hessian":[5.11E3,8E1,5.03E3,4E1,4E1,1.32E2,4.898E3,1.3E1,2.7E1,1.7E1,2.3E1,6.1E1,7.1E1,3.41E2,4.557E3],"tree_param":{"num_deleted":"6","num_feature":"16","num_nodes":"15","size_leaf_vector":"0"}},{"base_weights":[-4.1218846E-6,-8.678289E-4,3.1126913E-2,1.7279891E-2,-4.0336214E-3,-1.524978E-1,7.310139E-2,-5.8494834E-3,8.007241E-2,-8.649029E-2,-1.0272426E-3,2.2183272E-1,-3.0208445E-1,1.3714737E-1,-3.843222E-2],"categories":[],"categories_nodes":[],"categories_segments":[],"categories_sizes":[],"default_left":[true,false,false,false,false,false,true,false,false,false,false,false,false,false,false],"id":52,"left_children":[1,3,5,7,9,11,13,-1,-1,-1,-1,-1,-1,-1,-1],"loss_changes":[1.3745204E-1,2.8583553E-1,1.0747898E0,1.0737562E0,1.0499985E0,1.5228784E0,8.124614E-1,0E0,0E0,0E0,0E0,0E0,0E0,0E0,0E0],"parents":[2147483647,0,0,1,1,2,2,3,3,4,4,5,5,6,6],"right_children":[2,4,6,8,10,12,14,-1,-1,-1,-1,-1,-1,-1,-1],"split_conditions":[9.862745E-1,1.15686275E-1,1.1764706E-1,9.235294E-1,1.2745099E-1,9.901961E-1,9.431373E-1,-1.7548451E-3,2.4021724E-2,-2.5947088E-2,-3.081728E-4,6.654982E-2,-9.062534E-2,4.114421E-2,-1.1529667E-2],"split_indices":[8,11,11,8,11,8,11,0,0,0,0,0,0,0,0],"split_type":[0,0,0,0,0,0,0,0,0,0,0,0,0,0,0],"sum_hessian":[5.11E3,4.973E3,1.37E2,7.38E2,4.235E3,2.5E1,1.12E2,5.4E2,1.98E2,1.48E2,4.087E3,7E0,1.8E1,7.1E1,4.1E1],"tree_param":{"num_deleted":"0","num_feature":"16","num_nodes":"15","size_leaf_vector":"0"}},{"base_weights":[-2.586286E-6,1.4597762E-1,-2.0275453E-4,-1.498416E-1,2.9427364E-1,-7.787976E-2,2.87168E-4,1.1792968E-2,-2.7633905E-1,2.2760764E-1,-2.9668288E-4],"categories":[],"categories_nodes":[],"categories_segments":[],"categories_sizes":[],"default_left":[false,false,false,true,true,true,false,false,false,false,false],"id":53,"left_children":[1,-1,5,-1,-1,7,9,-1,-1,-1,-1],"loss_changes":[1.4937611E-1,3.5117608E-1,1.9429678E-1,0E0,0E0,5.727432E-1,6.734952E-1,0E0,0E0,0E0,0E0],"parents":[2147483647,0,0,1,1,2,2,5,5,6,6],"right_children":[2,-1,6,-1,-1,8,10,-1,-1,-1,-1],"split_conditions":[2.1568628E-2,4.3793287E-2,4.117647E-2,-4.4952482E-2,8.828209E-2,1.9803922E-1,4.117647E-2,3.5378905E-3,-8.2901716E-2,6.828229E-2,-8.900487E-5],"split_indices":[10,0,10,2147483647,2147483647,6,11,0,0,0,0],"split_type":[0,0,0,0,0,0,0,0,0,0,0],"sum_hessian":[5.11E3,6E0,5.104E3,2E0,4E0,3.1E1,5.073E3,2.2E1,9E0,1.2E1,5.061E3],"tree_param":{"num_deleted":"2","num_feature":"16","num_nodes":"11","size_leaf_vector":"0"}},{"base_weights":[4.5696306E-6,1.0072166E-2,-2.7589377E-3,4.242998E-3,1.6067399E-1,-1.238226E-1,-1.3231871E-3,3.1963572E-2,-1.4920971E-2,2.8535625E-1,4.0023103E-2,-2.4608304E-1,1.2843718E-1,-2.8219122E-1,-9.6831133E-4],"categories":[],"categories_nodes":[],"categories_segments":[],"categories_sizes":[],"default_left":[false,false,false,true,false,false,false,false,false,false,false,false,false,true,true],"id":54,"left_children":[1,3,5,7,9,11,-1,-1,-1,-1,-1,-1,-1,-1,-1],"loss_changes":[1.422254E-1,9.658679E-1,6.97017E-1,5.641186E-1,6.053432E-1,1.4811516E0,3.9493132E-1,0E0,0E0,0E0,0E0,0E0,0E0,0E0,0E0],"parents":[2147483647,0,0,1,1,2,2,3,3,4,4,5,5,6,6],"right_children":[2,4,6,8,10,12,-1,-1,-1,-1,-1,-1,-1,-1,-1],"split_conditions":[1.4705883E-1,2.0196079E-1,1.509804E-1,1.627451E-1,3.9607844E-1,9.509804E-1,-3.9695617E-4,9.589072E-3,-4.4762916E-3,8.560688E-2,1.2006932E-2,-7.382491E-2,3.8531154E-2,-8.465737E-2,-2.9049342E-4],"split_indices":[8,7,8,9,7,9,7,0,0,0,0,0,0,2147483647,2147483647],"split_type":[0,0,0,0,0,0,0,0,0,0,0,0,0,0,0],"sum_hessian":[5.11E3,1.1E3,4.01E3,1.06E3,4E1,4.6E1,3.964E3,4.33E2,6.27E2,1.9E1,2.1E1,3.1E1,1.5E1,4E0,3.96E3],"tree_param":{"num_deleted":"2","num_feature":"16","num_nodes":"15","size_leaf_vector":"0"}},{"base_weights":[1.6322327E-5,1.0572399E-1,-2.3240481E-4,1.702271E-1,-3.0190507E-1,-2.7250534E-1,-1.868611E-5,-1.16443016E-1,2.4686968E-1,-1.7023015E-1,2.8234E-4],"categories":[],"categories_nodes":[],"categories_segments":[],"categories_sizes":[],"default_left":[false,true,true,true,true,true,true,true,true,true,true],"id":55,"left_children":[-1,-1,-1,-1,-1,-1,-1,-1,-1,-1,-1],"loss_changes":[1.3440487E-1,3.6691248E-1,2.96763E-1,2.7042878E-1,0E0,0E0,2.6120862E-1,0E0,0E0,0E0,0E0],"parents":[2147483647,0,0,1,1,2,2,3,3,6,6],"right_children":[-1,-1,-1,-1,-1,-1,-1,-1,-1,-1,-1],"split_conditions":[4.896698E-6,3.17172E-2,-6.972145E-5,5.106813E-2,-9.057152E-2,-8.175161E-2,-5.6058334E-6,-3.4932908E-2,7.406091E-2,-5.1069047E-2,8.4702006E-5],"split_indices":[3,2147483647,2147483647,2147483647,2147483647,2147483647,2147483647,2147483647,2147483647,2147483647,2147483647],"split_type":[0,0,0,0,0,0,0,0,0,0,0],"sum_hessian":[5.11E3,1.1E1,5.099E3,1E1,1E0,3E0,5.096E3,2E0,8E0,8E0,5.088E3],"tree_param":{"num_deleted":"10","num_feature":"16","num_nodes":"11","size_leaf_vector":"0"}},{"base_weights":[1.1434343E-5,3.4803525E-3,-8.357512E-3,-1.5157819E-3,7.665541E-2,-9.570708E-2,-1.2299082E-3,-7.643629E-3,1.88497E-2,1.7320333E-1,2.5336403E-2,-3.9325815E-2,-2.2555397E-1,2.5605282E-1,-4.42157E-3],"categories":[],"categories_nodes":[],"categories_segments":[],"categories_sizes":[],"default_left":[true,true,false,true,false,false,false,true,true,false,false,false,false,false,false],"id":56,"left_children":[1,3,5,-1,9,11,13,-1,-1,-1,-1,-1,-1,-1,-1],"loss_changes":[1.4840749E-1,1.3213673E0,9.3252677E-1,4.2245564E-1,1.1401572E0,8.1839526E-1,1.139259E0,0E0,0E0,0E0,0E0,0E0,0E0,0E0,0E0],"parents":[2147483647,0,0,1,1,2,2,3,3,4,4,5,5,6,6],"right_children":[2,4,6,-1,10,12,14,-1,-1,-1,-1,-1,-1,-1,-1],"split_conditions":[6.1372554E-1,5.352942E-1,6.529412E-1,-4.5473457E-4,7.4313724E-1,7.745098E-1,6.5686274E-1,-2.2930887E-3,5.6549106E-3,5.1961E-2,7.600921E-3,-1.1797745E-2,-6.7666195E-2,7.681585E-2,-1.326471E-3],"split_indices":[6,6,6,0,5,8,6,2147483647,2147483647,0,0,0,0,0,0],"split_type":[0,0,0,0,0,0,0,0,0,0,0,0,0,0,0],"sum_hessian":[5.11E3,3.613E3,1.497E3,3.383E3,2.3E2,1.12E2,1.385E3,2.601E3,7.82E2,7.9E1,1.51E2,7.9E1,3.3E1,1.6E1,1.369E3],"tree_param":{"num_deleted":"2","num_feature":"16","num_nodes":"15","size_leaf_vector":"0"}},{"base_weights":[1.8780831E-5,-6.992848E-3,3.968445E-3,-5.449871E-3,-3.2064027E-1,1.0557761E-1,1.3544844E-3,-8.365063E-3,2.2445348E-1,-4.2110446E-1,2.4153665E-1,-8.511726E-2,1.605405E-1,-6.783362E-2,3.9649154E-3],"categories":[],"categories_nodes":[],"categories_segments":[],"categories_sizes":[],"default_left":[false,false,false,false,false,false,false,false,false,false,false,false,false,false,false],"id":57,"left_children":[1,3,5,7,9,11,13,-1,-1,-1,-1,-1,-1,-1,-1],"loss_changes":[1.4156963E-1,8.896898E-1,8.6837673E-1,1.2310469E0,6.1002004E-1,8.731184E-1,5.762367E-1,0E0,0E0,0E0,0E0,0E0,0E0,0E0,0E0],"parents":[2147483647,0,0,1,1,2,2,3,3,4,4,5,5,6,6],"right_children":[2,4,6,8,10,12,14,-1,-1,-1,-1,-1,-1,-1,-1],"split_conditions":[6.1372554E-1,9.901961E-1,6.490196E-1,9.705882E-1,8.5294116E-1,2.6862746E-1,7.078432E-1,-2.509519E-3,6.7336045E-2,-1.2633134E-1,7.2460994E-2,-2.553518E-2,4.8162155E-2,-2.0350086E-2,1.1894747E-3],"split_indices":[4,3,4,3,7,8,4,0,0,0,0,0,0,0,0],"split_type":[0,0,0,0,0,0,0,0,0,0,0,0,0,0,0],"sum_hessian":[5.11E3,1.841E3,3.269E3,1.833E3,8E0,8.1E1,3.188E3,1.811E3,2.2E1,7E0,1E0,1.8E1,6.3E1,1.15E2,3.073E3],"tree_param":{"num_deleted":"0","num_feature":"16","num_nodes":"15","size_leaf_vector":"0"}},{"base_weights":[1.5971142E-5,1.042867E-1,-2.2937488E-4,1.6839011E-1,-3.0042538E-1,-2.7028584E-1,-1.7396218E-5,-1.1447012E-1,2.4396683E-1,-1.16210416E-1,2.567551E-4],"categories":[],"categories_nodes":[],"categories_segments":[],"categories_sizes":[],"default_left":[false,true,true,true,true,true,true,true,true,true,true],"id":58,"left_children":[-1,-1,-1,-1,-1,-1,-1,-1,-1,-1,-1],"loss_changes":[1.3077562E-1,3.6190975E-1,2.9195097E-1,2.6308104E-1,0E0,0E0,1.6239208E-1,0E0,0E0,0E0,0E0],"parents":[2147483647,0,0,1,1,2,2,3,3,6,6],"right_children":[-1,-1,-1,-1,-1,-1,-1,-1,-1,-1,-1],"split_conditions":[4.7913427E-6,3.1286012E-2,-6.881247E-5,5.0517034E-2,-9.012762E-2,-8.108576E-2,-5.2188657E-6,-3.4341037E-2,7.3190056E-2,-3.4863126E-2,7.702653E-5],"split_indices":[3,2147483647,2147483647,2147483647,2147483647,2147483647,2147483647,2147483647,2147483647,2147483647,2147483647],"split_type":[0,0,0,0,0,0,0,0,0,0,0],"sum_hessian":[5.11E3,1.1E1,5.099E3,1E1,1E0,3E0,5.096E3,2E0,8E0,1.1E1,5.085E3],"tree_param":{"num_deleted":"10","num_feature":"16","num_nodes":"11","size_leaf_vector":"0"}},{"base_weights":[1.1190059E-5,-5.1404387E-3,5.239977E-3,-1.5836562E-3,-2.3051195E-1,1.6897194E-1,3.6748191E-3,-1.1374737E-1,-1.0482775E-4,-3.384531E-1,-4.7446862E-2,-4.02958E-2,4.1995162E-1,1.3917926E-1,2.2578684E-3],"categories":[],"categories_nodes":[],"categories_segments":[],"categories_sizes":[],"default_left":[false,false,false,false,true,false,false,true,true,false,false,false,false,true,true],"id":59,"left_children":[1,3,5,-1,9,11,-1,-1,-1,-1,-1,-1,-1,-1,-1],"loss_changes":[1.3770077E-1,2.0637484E0,6.4952683E-1,4.2063665E-1,7.743521E-1,1.2774491E0,4.8238158E-1,0E0,0E0,0E0,0E0,0E0,0E0,0E0,0E0],"parents":[2147483647,0,0,1,1,2,2,3,3,4,4,5,5,6,6],"right_children":[2,4,6,-1,10,12,-1,-1,-1,-1,-1,-1,-1,-1,-1],"split_conditions":[7.588235E-1,7.4313724E-1,2.9411767E-2,-4.7509687E-4,7.647059E-1,4.6078432E-1,1.1024458E-3,-3.4124214E-2,-3.1448326E-5,-1.0153594E-1,-1.42340595E-2,-1.208874E-2,1.2598549E-1,4.175378E-2,6.773606E-4],"split_indices":[2,2,4,4,11,3,2,2147483647,2147483647,0,0,0,0,2147483647,2147483647],"split_type":[0,0,0,0,0,0,0,0,0,0,0,0,0,0,0],"sum_hessian":[5.11E3,2.574E3,2.536E3,2.535E3,3.9E1,2.3E1,2.513E3,3.2E1,2.503E3,2.4E1,1.5E1,1.3E1,1E1,2.5E1,2.488E3],"tree_param":{"num_deleted":"4","num_feature":"16","num_nodes":"15","size_leaf_vector":"0"}},{"base_weights":[7.594032E-6,-7.422151E-2,3.577298E-4,-2.1222453E-1,1.08166106E-1,5.309747E-3,-5.5762893E-3,-2.7452496E-1,1.0771874E-1,3.160728E-1,-2.0453648E-1,-6.012964E-4,1.0318248E-1,-6.0075644E-2,1.7392838E-3],"categories":[],"categories_nodes":[],"categories_segments":[],"categories_sizes":[],"default_left":[false,true,true,true,false,true,false,true,true,false,false,false,false,false,false],"id":60,"left_children":[1,3,5,-1,9,11,13,-1,-1,-1,-1,-1,-1,-1,-1],"loss_changes":[1.3286279E-1,6.270365E-1,1.4954235E-1,3.0862796E-1,7.79791E-1,1.604904E0,9.230811E-1,0E0,0E0,0E0,0E0,0E0,0E0,0E0,0E0],"parents":[2147483647,0,0,1,1,2,2,3,3,4,4,5,5,6,6],"right_children":[2,4,6,-1,10,12,14,-1,-1,-1,-1,-1,-1,-1,-1],"split_conditions":[1.3725491E-2,5.627451E-1,2.4901962E-1,-6.3667364E-2,9.901961E-1,2.1372549E-1,3.27451E-1,-8.235749E-2,3.2315623E-2,9.482184E-2,-6.1360948E-2,-1.8038892E-4,3.0954745E-2,-1.8022694E-2,5.217852E-4],"split_indices":[4,11,7,7,9,7,7,2147483647,2147483647,0,0,0,0,0,0],"split_type":[0,0,0,0,0,0,0,0,0,0,0,0,0,0,0],"sum_hessian":[5.11E3,2.3E1,5.087E3,1.3E1,1E1,2.773E3,2.314E3,1.1E1,2E0,6E0,4E0,2.616E3,1.57E2,2.73E2,2.041E3],"tree_param":{"num_deleted":"2","num_feature":"16","num_nodes":"15","size_leaf_vector":"0"}},{"base_weights":[2.0000602E-6,1.1705581E-1,-2.7342106E-4,1.8226089E-1,-3.0010003E-1,-1.1277585E-1,-8.083566E-6,-7.1711674E-2,2.4666719E-1,2.0723844E-1,-1.9750254E-1,2.196029E-3,-1.3992896E-2],"categories":[],"categories_nodes":[],"categories_segments":[],"categories_sizes":[],"default_left":[false,true,true,true,true,true,true,true,true,true,true,true,true],"id":61,"left_children":[-1,-1,-1,-1,-1,-1,-1,-1,-1,-1,-1,-1,-1],"loss_changes":[1.6480601E-1,3.8110462E-1,1.5223974E-1,1.9762072E-1,0E0,3.6629522E-1,1.568946E-1,0E0,0E0,0E0,0E0,0E0,0E0],"parents":[2147483647,0,0,1,1,2,2,3,3,5,5,6,6],"right_children":[-1,-1,-1,-1,-1,-1,-1,-1,-1,-1,-1,-1,-1],"split_conditions":[6.000181E-7,3.5116743E-2,-8.202632E-5,5.467827E-2,-9.0030015E-2,-3.3832755E-2,-2.4250699E-6,-2.1513503E-2,7.400016E-2,6.2171534E-2,-5.9250765E-2,6.5880874E-4,-4.197869E-3],"split_indices":[3,2147483647,2147483647,2147483647,2147483647,2147483647,2147483647,2147483647,2147483647,2147483647,2147483647,2147483647,2147483647],"split_type":[0,0,0,0,0,0,0,0,0,0,0,0,0],"sum_hessian":[5.11E3,1.1E1,5.099E3,1E1,1E0,1.1E1,5.088E3,2E0,8E0,2E0,9E0,4.396E3,6.92E2],"tree_param":{"num_deleted":"12","num_feature":"16","num_nodes":"13","size_leaf_vector":"0"}},{"base_weights":[1.4040495E-6,1.1705526E-1,-2.7401707E-4,1.8226035E-1,-3.0010033E-1,-1.1277639E-1,-8.679571E-6,-7.171208E-2,2.4666667E-1,2.0723803E-1,-1.9750308E-1,1.1806054E-2,-2.347155E-3],"categories":[],"categories_nodes":[],"categories_segments":[],"categories_sizes":[],"default_left":[false,true,true,true,true,true,true,true,true,true,true,true,true],"id":62,"left_children":[-1,-1,-1,-1,-1,-1,-1,-1,-1,-1,-1,-1,-1],"loss_changes":[1.6480613E-1,3.8110435E-1,1.5223964E-1,1.9762075E-1,0E0,3.6629534E-1,1.4062896E-1,0E0,0E0,0E0,0E0,0E0,0E0],"parents":[2147483647,0,0,1,1,2,2,3,3,5,5,6,6],"right_children":[-1,-1,-1,-1,-1,-1,-1,-1,-1,-1,-1,-1,-1],"split_conditions":[4.2121488E-7,3.511658E-2,-8.220512E-5,5.467811E-2,-9.0030104E-2,-3.383292E-2,-2.6038713E-6,-2.1513624E-2,7.4E-2,6.217141E-2,-5.9250925E-2,3.5418163E-3,-7.041465E-4],"split_indices":[3,2147483647,2147483647,2147483647,2147483647,2147483647,2147483647,2147483647,2147483647,2147483647,2147483647,2147483647,2147483647],"split_type":[0,0,0,0,0,0,0,0,0,0,0,0,0],"sum_hessian":[5.11E3,1.1E1,5.099E3,1E1,1E0,1.1E1,5.088E3,2E0,8E0,2E0,9E0,8.4E2,4.248E3],"tree_param":{"num_deleted":"12","num_feature":"16","num_nodes":"13","size_leaf_vector":"0"}},{"base_weights":[9.865261E-7,1.1705487E-1,-2.7443457E-4,1.8225996E-1,-3.0010054E-1,-1.16449535E-1,1.14088456E-4,-7.171235E-2,2.4666628E-1,-2.3788327E-1,4.989883E-2,2.4273652E-3,-1.4571372E-2],"categories":[],"categories_nodes":[],"categories_segments":[],"categories_sizes":[],"default_left":[false,true,true,true,true,true,true,true,true,true,true,true,true],"id":63,"left_children":[-1,-1,-1,-1,-1,-1,-1,-1,-1,-1,-1,-1,-1],"loss_changes":[1.6480623E-1,3.8110414E-1,2.3021047E-1,1.9762069E-1,0E0,3.552752E-1,1.7274666E-1,0E0,0E0,0E0,0E0,0E0,0E0],"parents":[2147483647,0,0,1,1,2,2,3,3,5,5,6,6],"right_children":[-1,-1,-1,-1,-1,-1,-1,-1,-1,-1,-1,-1,-1],"split_conditions":[2.9595782E-7,3.5116464E-2,-8.233037E-5,5.467799E-2,-9.003016E-2,-3.4934863E-2,3.4226538E-5,-2.1513706E-2,7.399989E-2,-7.1364984E-2,1.496965E-2,7.2820956E-4,-4.371412E-3],"split_indices":[3,2147483647,2147483647,2147483647,2147483647,2147483647,2147483647,2147483647,2147483647,2147483647,2147483647,2147483647,2147483647],"split_type":[0,0,0,0,0,0,0,0,0,0,0,0,0],"sum_hessian":[5.11E3,1.1E1,5.099E3,1E1,1E0,1.6E1,5.083E3,2E0,8E0,9E0,7E0,4.392E3,6.91E2],"tree_param":{"num_deleted":"12","num_feature":"16","num_nodes":"13","size_leaf_vector":"0"}},{"base_weights":[6.888655E-7,1.1596335E-2,-2.289105E-3,-1.108988E-2,5.269535E-2,-1.8947124E-2,1.8092315E-3,3.889616E-3,-1.4993557E-1,-2.4338612E-2,9.678457E-2,4.081379E-2,-3.3441387E-2,8.195726E-2,-1.4517416E-3],"categories":[],"categories_nodes":[],"categories_segments":[],"categories_sizes":[],"default_left":[false,false,false,false,false,false,false,false,false,false,false,false,false,false,false],"id":64,"left_children":[1,3,5,7,9,11,13,-1,-1,-1,-1,-1,-1,-1,-1],"loss_changes":[1.3573198E-1,7.865816E-1,2.9147962E-1,1.1320153E0,1.0212657E0,7.315632E-1,8.9580154E-1,0E0,0E0,0E0,0E0,0E0,0E0,0E0,0E0],"parents":[2147483647,0,0,1,1,2,2,3,3,4,4,5,5,6,6],"right_children":[2,4,6,8,10,12,14,-1,-1,-1,-1,-1,-1,-1,-1],"split_conditions":[1.15686275E-1,9.2156865E-2,2.0196079E-1,8.82353E-2,1.6666667E-1,1.509804E-1,2.2941177E-1,1.1668849E-3,-4.4980675E-2,-7.301584E-3,2.9035373E-2,1.2244137E-2,-1.0032416E-2,2.4587179E-2,-4.355225E-4],"split_indices":[7,7,7,7,11,4,7,0,0,0,0,0,0,0,0],"split_type":[0,0,0,0,0,0,0,0,0,0,0,0,0,0,0],"sum_hessian":[5.11E3,8.42E2,4.268E3,5.43E2,2.99E2,8.42E2,3.426E3,4.91E2,5.2E1,1.09E2,1.9E2,1.64E2,6.78E2,1.33E2,3.293E3],"tree_param":{"num_deleted":"0","num_feature":"16","num_nodes":"15","size_leaf_vector":"0"}},{"base_weights":[1.3254399E-6,1.1499792E-1,-2.6925505E-4,1.7997645E-1,-2.9988292E-1,-1.1444824E-1,1.1259232E-4,-7.1422204E-2,2.4377862E-1,-2.2589493E-1,3.9166134E-2,-3.164932E-2,1.1244649E-3],"categories":[],"categories_nodes":[],"categories_segments":[],"categories_sizes":[],"default_left":[false,true,true,true,true,true,true,true,true,true,true,true,true],"id":65,"left_children":[-1,-1,-1,-1,-1,-1,-1,-1,-1,-1,-1,-1,-1],"loss_changes":[1.59064E-1,3.7747198E-1,2.2236751E-1,1.9384879E-1,0E0,2.998842E-1,1.6343033E-1,0E0,0E0,0E0,0E0,0E0,0E0],"parents":[2147483647,0,0,1,1,2,2,3,3,5,5,6,6],"right_children":[-1,-1,-1,-1,-1,-1,-1,-1,-1,-1,-1,-1,-1],"split_conditions":[3.97632E-7,3.4499377E-2,-8.077652E-5,5.399294E-2,-8.996488E-2,-3.4334473E-2,3.37777E-5,-2.1426663E-2,7.313359E-2,-6.7768484E-2,1.174984E-2,-9.494796E-3,3.3733947E-4],"split_indices":[3,2147483647,2147483647,2147483647,2147483647,2147483647,2147483647,2147483647,2147483647,2147483647,2147483647,2147483647,2147483647],"split_type":[0,0,0,0,0,0,0,0,0,0,0,0,0],"sum_hessian":[5.11E3,1.1E1,5.099E3,1E1,1E0,1.6E1,5.083E3,2E0,8E0,9E0,7E0,1.56E2,4.927E3],"tree_param":{"num_deleted":"12","num_feature":"16","num_nodes":"13","size_leaf_vector":"0"}},{"base_weights":[9.2057024E-7,2.1306705E-3,-1.3534484E-2,-4.6109963E-2,3.837304E-3,5.2399244E-2,-3.5318423E-2,-8.057744E-2,6.623274E-2,9.45665E-3,-9.416055E-3,1.8443199E-1,1.3868312E-2,-8.6541966E-2,3.507095E-2],"categories":[],"categories_nodes":[],"categories_segments":[],"categories_sizes":[],"default_left":[true,false,false,true,true,false,false,false,false,true,true,false,false,false,false],"id":66,"left_children":[1,3,5,7,-1,11,13,-1,-1,-1,-1,-1,-1,-1,-1],"loss_changes":[1.4736378E-1,3.6382452E-1,1.0000767E0,5.900345E-1,3.178748E-1,8.77553E-1,1.8887603E0,0E0,0E0,0E0,0E0,0E0,0E0,0E0,0E0],"parents":[2147483647,0,0,1,1,2,2,3,3,4,4,5,5,6,6],"right_children":[2,4,6,8,-1,12,14,-1,-1,-1,-1,-1,-1,-1,-1],"split_conditions":[9.5E0,6.0784318E-2,1.7058824E-1,7.5E0,1.1511912E-3,1.1764706E-1,9.039216E-1,-2.4173234E-2,1.9869823E-2,2.8369953E-3,-2.8248166E-3,5.53296E-2,4.160494E-3,-2.5962591E-2,1.0521285E-2],"split_indices":[13,4,5,14,6,6,4,0,0,2147483647,2147483647,0,0,0,0],"split_type":[0,0,0,0,0,0,0,0,0,0,0,0,0,0,0],"sum_hessian":[5.11E3,4.416E3,6.94E2,1.5E2,4.266E3,1.72E2,5.22E2,1.15E2,3.5E1,2.996E3,1.27E3,3.8E1,1.34E2,3.02E2,2.2E2],"tree_param":{"num_deleted":"2","num_feature":"16","num_nodes":"15","size_leaf_vector":"0"}},{"base_weights":[8.635832E-6,1.17602445E-1,-2.680572E-4,1.8292244E-1,-3.0045873E-1,-1.05970085E-1,-1.8756265E-5,-5.5306982E-2,2.4200752E-1,-3.137828E-1,-1.8344091E-3,3.5911521E-3,-7.4312924E-3],"categories":[],"categories_nodes":[],"categories_segments":[],"categories_sizes":[],"default_left":[false,true,true,true,true,true,true,true,true,true,true,true,true],"id":67,"left_children":[-1,-1,-1,-1,-1,-1,-1,-1,-1,-1,-1,-1,-1],"loss_changes":[1.663301E-1,3.826537E-1,1.3439122E-1,1.6821858E-1,0E0,2.59113E-1,1.3620108E-1,0E0,0E0,0E0,0E0,0E0,0E0],"parents":[2147483647,0,0,1,1,2,2,3,3,5,5,6,6],"right_children":[-1,-1,-1,-1,-1,-1,-1,-1,-1,-1,-1,-1,-1],"split_conditions":[2.5907498E-6,3.5280734E-2,-8.041716E-5,5.4876734E-2,-9.013762E-2,-3.1791028E-2,-5.62688E-6,-1.6592095E-2,7.260226E-2,-9.4134845E-2,-5.5032276E-4,1.0773457E-3,-2.2293879E-3],"split_indices":[3,2147483647,2147483647,2147483647,2147483647,2147483647,2147483647,2147483647,2147483647,2147483647,2147483647,2147483647,2147483647],"split_type":[0,0,0,0,0,0,0,0,0,0,0,0,0],"sum_hessian":[5.11E3,1.1E1,5.099E3,1E1,1E0,1.1E1,5.088E3,2E0,8E0,3E0,8E0,3.422E3,1.666E3],"tree_param":{"num_deleted":"12","num_feature":"16","num_nodes":"13","size_leaf_vector":"0"}},{"base_weights":[6.0596903E-6,-1.1732199E-2,2.284613E-3,-6.6396757E-3,-1.6313031E-1,-7.7101025E-3,8.034963E-3,-1.3664943E-2,2.8470373E-1,1.8433271E-1,-1.9830066E-1,-7.939752E-2,-1.1558753E-3,9.1847904E-2,2.999786E-3],"categories":[],"categories_nodes":[],"categories_segments":[],"categories_sizes":[],"default_left":[false,true,false,true,false,false,false,false,false,true,true,false,false,false,false],"id":68,"left_children":[1,3,5,7,-1,11,13,-1,-1,-1,-1,-1,-1,-1,-1],"loss_changes":[1.3672687E-1,6.3961655E-1,2.4610433E-1,1.6515367E0,3.66504E-1,7.3476243E-1,1.1467557E0,0E0,0E0,0E0,0E0,0E0,0E0,0E0,0E0],"parents":[2147483647,0,0,1,1,2,2,3,3,4,4,5,5,6,6],"right_children":[2,4,6,8,-1,12,14,-1,-1,-1,-1,-1,-1,-1,-1],"split_conditions":[1.2745099E-1,9.705882E-1,2.372549E-1,9.5490193E-1,-4.8939098E-2,1.0392157E-1,2.882353E-1,-4.099483E-3,8.5411124E-2,5.5299815E-2,-5.94902E-2,-2.3819258E-2,-3.467626E-4,2.7554372E-2,8.9993584E-4],"split_indices":[4,8,6,6,1,0,6,0,0,2147483647,2147483647,0,0,0,0],"split_type":[0,0,0,0,0,0,0,0,0,0,0,0,0,0,0],"sum_hessian":[5.11E3,8.3E2,4.28E3,8.04E2,2.6E1,1.563E3,2.717E3,7.86E2,1.8E1,2E0,2.4E1,1.3E2,1.433E3,1.53E2,2.564E3],"tree_param":{"num_deleted":"2","num_feature":"16","num_nodes":"15","size_leaf_vector":"0"}},{"base_weights":[1.1424101E-5,1.2797734E-3,-2.0625E-2,-1.1985245E-5,5.5533744E-2,-1.8567389E-3,-2.1545477E-1,1.6701261E-3,-3.1872265E-2,8.7055005E-2,-2.1439804E-1,-4.9866237E-2,3.5496116E-2,4.8004903E-2,-3.3521488E-1],"categories":[],"categories_nodes":[],"categories_segments":[],"categories_sizes":[],"default_left":[true,true,true,true,true,false,false,true,true,false,false,true,true,false,false],"id":69,"left_children":[1,3,5,-1,9,-1,13,-1,-1,-1,-1,-1,-1,-1,-1],"loss_changes":[1.338027E-1,3.3752057E-1,1.0819583E0,2.522061E-1,9.7162664E-1,4.877521E-1,8.3644295E-1,0E0,0E0,0E0,0E0,0E0,0E0,0E0,0E0],"parents":[2147483647,0,0,1,1,2,2,3,3,4,4,5,5,6,6],"right_children":[2,4,6,-1,10,-1,14,-1,-1,-1,-1,-1,-1,-1,-1],"split_conditions":[9.666667E-1,9.470588E-1,9.666667E-1,-3.5955736E-6,8.9607847E-1,-5.570217E-4,3.6666667E-1,5.0103787E-4,-9.56168E-3,2.6116503E-2,-6.431942E-2,-1.4959872E-2,1.0648835E-2,1.4401471E-2,-1.0056447E-1],"split_indices":[6,7,5,7,2,6,9,2147483647,2147483647,0,0,2147483647,2147483647,0,0],"split_type":[0,0,0,0,0,0,0,0,0,0,0,0,0,0,0],"sum_hessian":[5.11E3,4.815E3,2.95E2,4.704E3,1.11E2,2.7E2,2.5E1,4.469E3,2.35E2,1E2,1.1E1,1.18E2,1.52E2,8E0,1.7E1],"tree_param":{"num_deleted":"4","num_feature":"16","num_nodes":"15","size_leaf_vector":"0"}},{"base_weights":[-1.6452332E-5,6.569939E-3,-5.4334896E-3,4.1623143E-3,9.5149666E-2,-2.1271673E-1,-4.09327E-3,3.0100847E-2,-2.956967E-3,3.2187605E-1,2.3547154E-4,7.772561E-2,-2.759869E-1,2.2167112E-1,-5.149049E-3],"categories":[],"categories_nodes":[],"categories_segments":[],"categories_sizes":[],"default_left":[true,true,false,true,true,false,false,true,true,false,false,true,true,false,false],"id":70,"left_children":[1,3,5,-1,9,-1,13,-1,-1,-1,-1,-1,-1,-1,-1],"loss_changes":[1.8238966E-1,4.9161047E-1,7.783724E-1,4.1502836E-1,1.3126168E0,3.5222524E-1,6.6568184E-1,0E0,0E0,0E0,0E0,0E0,0E0,0E0,0E0],"parents":[2147483647,0,0,1,1,2,2,3,3,4,4,5,5,6,6],"right_children":[2,4,6,-1,10,-1,14,-1,-1,-1,-1,-1,-1,-1,-1],"split_conditions":[1.8235295E-1,1.7450981E-1,4.509804E-2,1.2486944E-3,1.4117648E-1,-6.381502E-2,2.5490196E-2,9.030255E-3,-8.8709017E-4,9.656282E-2,7.0641465E-5,2.3317683E-2,-8.2796074E-2,6.650134E-2,-1.5447148E-3],"split_indices":[8,8,9,3,9,9,4,2147483647,2147483647,0,0,2147483647,2147483647,0,0],"split_type":[0,0,0,0,0,0,0,0,0,0,0,0,0,0,0],"sum_hessian":[5.11E3,2.306E3,2.804E3,2.246E3,6E1,1.7E1,2.787E3,4.83E2,1.763E3,1.7E1,4.3E1,3E0,1.4E1,1.2E1,2.775E3],"tree_param":{"num_deleted":"4","num_feature":"16","num_nodes":"15","size_leaf_vector":"0"}},{"base_weights":[7.853085E-6,-8.62306E-4,3.388961E-2,3.1987735E-4,-8.385614E-2,-1.1516974E-1,7.3014244E-2,2.8486615E-1,1.460612E-4,-1.5896639E-1,7.654159E-2,-6.185165E-5,-2.825938E-1,4.680565E-1,4.782592E-2],"categories":[],"categories_nodes":[],"categories_segments":[],"categories_sizes":[],"default_left":[true,true,false,false,false,true,false,true,true,false,false,false,false,false,false],"id":71,"left_children":[1,3,5,-1,9,11,13,-1,-1,-1,-1,-1,-1,-1,-1],"loss_changes":[1.5071438E-1,4.890267E-1,7.5489134E-1,2.4304807E-1,8.554934E-1,5.2032185E-1,9.925611E-1,0E0,0E0,0E0,0E0,0E0,0E0,0E0,0E0],"parents":[2147483647,0,0,1,1,2,2,3,3,4,4,5,5,6,6],"right_children":[2,4,6,-1,10,12,14,-1,-1,-1,-1,-1,-1,-1,-1],"split_conditions":[9.862745E-1,9.7450984E-1,1.2745099E-1,9.596321E-5,9.5686275E-1,1.2745099E-1,1.5490197E-1,8.545985E-2,4.381836E-5,-4.768992E-2,2.2962477E-2,-1.8555496E-5,-8.477814E-2,1.4041695E-1,1.4347777E-2],"split_indices":[7,7,10,10,3,1,11,2147483647,2147483647,0,0,0,0,0,0],"split_type":[0,0,0,0,0,0,0,0,0,0,0,0,0,0,0],"sum_hessian":[5.11E3,4.983E3,1.27E2,4.914E3,6.9E1,2.6E1,1.01E2,2E0,4.912E3,4.7E1,2.2E1,1.6E1,1E1,5E0,9.6E1],"tree_param":{"num_deleted":"2","num_feature":"16","num_nodes":"15","size_leaf_vector":"0"}},{"base_weights":[1.436711E-5,3.918193E-3,-7.77271E-3,4.6281723E-4,1.14686996E-1,7.163771E-2,-1.2029918E-2,-1.8944984E-3,4.066347E-2,5.1756825E-2,2.5269592E-1,1.374254E-1,-1.416676E-1,-3.159935E-2,8.4936395E-3],"categories":[],"categories_nodes":[],"categories_segments":[],"categories_sizes":[],"default_left":[true,true,false,true,true,true,true,true,true,false,false,false,false,false,false],"id":72,"left_children":[1,3,5,-1,9,11,13,-1,-1,-1,-1,-1,-1,-1,-1],"loss_changes":[1.5540174E-1,1.3032032E0,5.7794166E-1,3.1308788E-1,8.8146865E-1,1.2403276E0,6.5131766E-1,0E0,0E0,0E0,0E0,0E0,0E0,0E0,0E0],"parents":[2147483647,0,0,1,1,2,2,3,3,4,4,5,5,6,6],"right_children":[2,4,6,-1,10,12,14,-1,-1,-1,-1,-1,-1,-1,-1],"split_conditions":[8.647059E-1,8.45098E-1,9.2156865E-2,1.3884518E-4,1.2352942E-1,6.215687E-1,8.0980396E-1,-5.6834955E-4,1.2199041E-2,1.5527048E-2,7.580878E-2,4.122762E-2,-4.2500284E-2,-9.479806E-3,2.548092E-3],"split_indices":[3,5,1,3,1,6,10,2147483647,2147483647,0,0,0,0,0,0],"split_type":[0,0,0,0,0,0,0,0,0,0,0,0,0,0,0],"sum_hessian":[5.11E3,3.404E3,1.706E3,3.302E3,1.02E2,8.6E1,1.62E3,3.12E3,1.82E2,7.1E1,3.1E1,6.6E1,2E1,8.29E2,7.91E2],"tree_param":{"num_deleted":"2","num_feature":"16","num_nodes":"15","size_leaf_vector":"0"}},{"base_weights":[2.6358619E-5,4.920947E-3,-8.077059E-3,-1.6340565E-4,7.5204015E-2,-7.12683E-4,-6.3715845E-2,3.1189984E-3,-7.891215E-2,2.2014599E-1,3.2225803E-2,-1.2903385E-1,2.852224E-3,2.3477176E-1,-7.15668E-2],"categories":[],"categories_nodes":[],"categories_segments":[],"categories_sizes":[],"default_left":[true,true,true,true,false,false,true,false,false,false,false,false,false,false,false],"id":73,"left_children":[1,3,5,7,9,11,13,-1,-1,-1,-1,-1,-1,-1,-1],"loss_changes":[2.0275679E-1,1.1388673E0,7.8871363E-1,7.6872253E-1,1.3322153E0,7.784956E-1,5.440695E-1,0E0,0E0,0E0,0E0,0E0,0E0,0E0,0E0],"parents":[2147483647,0,0,1,1,2,2,3,3,4,4,5,5,6,6],"right_children":[2,4,6,8,10,12,14,-1,-1,-1,-1,-1,-1,-1,-1],"split_conditions":[9.235294E-1,8.5294116E-1,9.3921566E-1,7.823529E-1,8.803922E-1,6.8627454E-2,2.5E0,9.3569956E-4,-2.3673644E-2,6.60438E-2,9.667741E-3,-3.8710155E-2,8.556672E-4,7.043153E-2,-2.147004E-2],"split_indices":[10,10,6,10,11,1,13,0,0,0,0,0,0,0,0],"split_type":[0,0,0,0,0,0,0,0,0,0,0,0,0,0,0],"sum_hessian":[5.11E3,3.186E3,1.924E3,2.972E3,2.14E2,1.7E3,2.24E2,2.854E3,1.18E2,4.8E1,1.66E2,4.5E1,1.655E3,5E0,2.19E2],"tree_param":{"num_deleted":"0","num_feature":"16","num_nodes":"15","size_leaf_vector":"0"}},{"base_weights":[3.099404E-5,-2.6439214E-3,1.3146075E-2,-2.8764506E-4,-1.319253E-1,3.0531418E-1,4.455637E-3,-1.9549436E-3,8.609895E-2,-1.8830238E-1,3.0869317E-1,3.2454854E-1,-7.815515E-2,-2.1360555E-1,8.4006395E-3],"categories":[],"categories_nodes":[],"categories_segments":[],"categories_sizes":[],"default_left":[true,true,false,true,true,true,false,false,false,false,false,true,true,false,false],"id":74,"left_children":[1,3,5,7,9,-1,13,-1,-1,-1,-1,-1,-1,-1,-1],"loss_changes":[1.7933752E-1,1.29339E0,2.1974733E0,6.009268E-1,1.9460268E0,2.0975995E-1,7.2612655E-1,0E0,0E0,0E0,0E0,0E0,0E0,0E0,0E0],"parents":[2147483647,0,0,1,1,2,2,3,3,4,4,5,5,6,6],"right_children":[2,4,6,8,10,-1,14,-1,-1,-1,-1,-1,-1,-1,-1],"split_conditions":[8.176471E-1,7.823529E-1,8.333334E-1,7.54902E-1,9.3921566E-1,9.159426E-2,8.372549E-1,-5.864831E-4,2.5829686E-2,-5.6490716E-2,9.260795E-2,9.736457E-2,-2.3446547E-2,-6.408167E-2,2.520192E-3],"split_indices":[7,7,7,7,0,4,7,0,0,0,0,2147483647,2147483647,0,0],"split_type":[0,0,0,0,0,0,0,0,0,0,0,0,0,0,0],"sum_hessian":[5.11E3,4.245E3,8.65E2,4.17E3,7.5E1,2.4E1,8.41E2,4.092E3,7.8E1,6.7E1,8E0,2.3E1,1E0,1.4E1,8.27E2],"tree_param":{"num_deleted":"2","num_feature":"16","num_nodes":"15","size_leaf_vector":"0"}},{"base_weights":[3.9586237E-5,-1.5757121E-3,2.0621506E-2,-5.018542E-4,-1.64682E-1,-7.109603E-2,3.4755424E-2,2.8447682E-1,-6.833398E-4,2.975803E-1,-2.65024E-1,-1.03493445E-1,3.273476E-1,3.5872906E-1,2.6443575E-2],"categories":[],"categories_nodes":[],"categories_segments":[],"categories_sizes":[],"default_left":[true,true,false,false,false,false,false,true,true,false,false,false,false,false,false],"id":75,"left_children":[1,3,5,-1,9,11,13,-1,-1,-1,-1,-1,-1,-1,-1],"loss_changes":[1.6995251E-1,8.3014244E-1,4.8470506E-1,2.4379334E-1,1.5167799E0,6.7930555E-1,8.602948E-1,0E0,0E0,0E0,0E0,0E0,0E0,0E0,0E0],"parents":[2147483647,0,0,1,1,2,2,3,3,4,4,5,5,6,6],"right_children":[2,4,6,-1,10,12,14,-1,-1,-1,-1,-1,-1,-1,-1],"split_conditions":[9.470588E-1,9.3921566E-1,1.5490197E-1,-1.5055627E-4,2.7058825E-1,3.4509805E-1,1.7058824E-1,8.534305E-2,-2.0500194E-4,8.927409E-2,-7.95072E-2,-3.1048035E-2,9.8204285E-2,1.0761873E-1,7.933073E-3],"split_indices":[8,8,3,10,5,5,3,2147483647,2147483647,0,0,0,0,0,0],"split_type":[0,0,0,0,0,0,0,0,0,0,0,0,0,0,0],"sum_hessian":[5.11E3,4.739E3,3.71E2,4.709E3,3E1,4.9E1,3.22E2,2E0,4.707E3,5E0,2.5E1,4.6E1,3E0,7E0,3.15E2],"tree_param":{"num_deleted":"2","num_feature":"16","num_nodes":"15","size_leaf_vector":"0"}},{"base_weights":[6.534404E-5,2.9376164E-2,-7.0554187E-4,1.6926238E-2,3.3972904E-1,-1.0648837E-1,3.886844E-4,-2.2655698E-2,9.2107065E-2,4.2915872E-1,-8.994838E-3,1.8278134E-1,-2.102591E-1,5.0281294E-2,-6.861334E-4],"categories":[],"categories_nodes":[],"categories_segments":[],"categories_sizes":[],"default_left":[false,true,false,false,true,false,false,true,true,true,true,false,false,true,true],"id":76,"left_children":[1,3,5,-1,-1,11,-1,-1,-1,-1,-1,-1,-1,-1,-1],"loss_changes":[1.15505286E-1,5.004167E-1,5.765939E-1,3.800137E-1,1.5979153E-1,1.5693355E0,2.644617E-1,0E0,0E0,0E0,0E0,0E0,0E0,0E0,0E0],"parents":[2147483647,0,0,1,1,2,2,3,3,4,4,5,5,6,6],"right_children":[2,4,6,-1,-1,12,-1,-1,-1,-1,-1,-1,-1,-1,-1],"split_conditions":[6.4705886E-2,9.7843134E-1,6.4705886E-2,5.0778715E-3,1.0191872E-1,1.1960784E-1,1.1660532E-4,-6.7967097E-3,2.7632121E-2,1.2874763E-1,-2.6984515E-3,5.4834403E-2,-6.307773E-2,1.5084389E-2,-2.0584003E-4],"split_indices":[9,4,10,10,1,8,10,2147483647,2147483647,2147483647,2147483647,0,0,2147483647,2147483647],"split_type":[0,0,0,0,0,0,0,0,0,0,0,0,0,0,0],"sum_hessian":[5.11E3,1.3E2,4.98E3,1.26E2,4E0,5E1,4.93E3,8.3E1,4.3E1,3E0,1E0,1.3E1,3.7E1,1.03E2,4.827E3],"tree_param":{"num_deleted":"6","num_feature":"16","num_nodes":"15","size_leaf_vector":"0"}},{"base_weights":[6.509148E-5,1.4480181E-1,-1.3338494E-4,-1.7042962E-1,3.049803E-1,-1.506148E-3,2.1178195E-2,5.3449586E-4,-3.5722923E-2,1.1410117E-1,6.133752E-3],"categories":[],"categories_nodes":[],"categories_segments":[],"categories_sizes":[],"default_left":[false,true,true,true,true,true,true,true,true,true,true],"id":77,"left_children":[-1,-1,-1,-1,-1,-1,-1,-1,-1,-1,-1],"loss_changes":[1.468421E-1,4.0543073E-1,1.4938252E-1,0E0,0E0,3.3496606E-1,4.3127418E-1,0E0,0E0,0E0,0E0],"parents":[2147483647,0,0,1,1,2,2,5,5,6,6],"right_children":[-1,-1,-1,-1,-1,-1,-1,-1,-1,-1,-1],"split_conditions":[1.9527444E-5,4.3440543E-2,-4.0015482E-5,-5.1128887E-2,9.14941E-2,-4.5184442E-4,6.353459E-3,1.6034876E-4,-1.0716877E-2,3.423035E-2,1.8401257E-3],"split_indices":[10,2147483647,2147483647,2147483647,2147483647,2147483647,2147483647,2147483647,2147483647,2147483647,2147483647],"split_type":[0,0,0,0,0,0,0,0,0,0,0],"sum_hessian":[5.11E3,6E0,5.104E3,2E0,4E0,4.796E3,3.08E2,4.527E3,2.69E2,4.2E1,2.66E2],"tree_param":{"num_deleted":"10","num_feature":"16","num_nodes":"11","size_leaf_vector":"0"}},{"base_weights":[4.5558365E-5,9.4950706E-2,-2.1507671E-4,-2.1525456E-1,2.4055827E-1,-1.2666765E-1,5.8349644E-5,8.932781E-2,2.671999E-1,-2.0932919E-1,1.6353953E-1,2.0611112E-1,-1.0374858E-4],"categories":[],"categories_nodes":[],"categories_segments":[],"categories_sizes":[],"default_left":[false,false,false,false,false,true,true,true,true,true,true,true,true],"id":78,"left_children":[1,3,-1,-1,-1,-1,-1,-1,-1,-1,-1,-1,-1],"loss_changes":[1.2644413E-1,6.841365E-1,1.7627312E-1,0E0,1.6421914E-2,2.981123E-1,1.6996458E-1,0E0,0E0,0E0,0E0,0E0,0E0],"parents":[2147483647,0,0,1,1,2,2,4,4,5,5,6,6],"right_children":[2,4,-1,-1,-1,-1,-1,-1,-1,-1,-1,-1,-1],"split_conditions":[2.9411767E-2,4.3529412E-1,-6.452302E-5,-6.457637E-2,7.2167486E-2,-3.8000297E-2,1.7504894E-5,2.6798345E-2,8.015998E-2,-6.279876E-2,4.906186E-2,6.1833337E-2,-3.1124575E-5],"split_indices":[11,0,9,0,11,2147483647,2147483647,2147483647,2147483647,2147483647,2147483647,2147483647,2147483647],"split_type":[0,0,0,0,0,0,0,0,0,0,0,0,0],"sum_hessian":[5.11E3,1.3E1,5.097E3,4E0,9E0,1E1,5.087E3,2E0,7E0,8E0,2E0,3E0,5.084E3],"tree_param":{"num_deleted":"8","num_feature":"16","num_nodes":"13","size_leaf_vector":"0"}},{"base_weights":[3.3378685E-5,-1.2787542E-3,2.0358633E-2,-6.2942243E-4,-1.954708E-1,1.1414512E-1,5.234836E-3,1.0765935E-3,-3.0459218E-2,1.8718045E-2,-2.6842692E-1,-7.591045E-2,2.4133186E-1,-1.8821147E-1,2.4163311E-2],"categories":[],"categories_nodes":[],"categories_segments":[],"categories_sizes":[],"default_left":[true,true,false,true,false,true,false,true,true,true,true,false,false,false,false],"id":79,"left_children":[1,3,5,-1,-1,11,13,-1,-1,-1,-1,-1,-1,-1,-1],"loss_changes":[1.3633353E-1,6.053855E-1,4.391089E-1,2.4364372E-1,2.550466E-1,1.0577393E0,9.8586833E-1,0E0,0E0,0E0,0E0,0E0,0E0,0E0,0E0],"parents":[2147483647,0,0,1,1,2,2,3,3,4,4,5,5,6,6],"right_children":[2,4,6,-1,-1,12,14,-1,-1,-1,-1,-1,-1,-1,-1],"split_conditions":[9.705882E-1,9.705882E-1,1.15686275E-1,-1.8882674E-4,-5.864124E-2,1E-1,1.4705883E-1,3.2297807E-4,-9.1377655E-3,5.6154137E-3,-8.052808E-2,-2.2773135E-2,7.2399564E-2,-5.6463443E-2,7.2489935E-3],"split_indices":[3,4,11,3,6,7,11,2147483647,2147483647,2147483647,2147483647,0,0,0,0],"split_type":[0,0,0,0,0,0,0,0,0,0,0,0,0,0,0],"sum_hessian":[5.11E3,4.801E3,3.09E2,4.786E3,1.5E1,4.2E1,2.67E2,4.528E3,2.58E2,4E0,1.1E1,1.7E1,2.5E1,2.3E1,2.44E2],"tree_param":{"num_deleted":"4","num_feature":"16","num_nodes":"15","size_leaf_vector":"0"}},{"base_weights":[1.1935808E-5,1.428368E-1,-1.8390865E-4,2.9072094E-1,-1.5124905E-1,-9.987354E-4,2.9371262E-2,3.3559045E-4,-6.1632644E-2,2.8231952E-1,9.380216E-3],"categories":[],"categories_nodes":[],"categories_segments":[],"categories_sizes":[],"default_left":[false,true,true,true,true,true,false,true,true,false,false],"id":80,"left_children":[1,-1,5,-1,-1,-1,9,-1,-1,-1,-1],"loss_changes":[1.4298838E-1,3.4840575E-1,1.2296971E-1,0E0,0E0,4.020396E-1,6.9011974E-1,0E0,0E0,0E0,0E0],"parents":[2147483647,0,0,1,1,2,2,5,5,6,6],"right_children":[2,-1,6,-1,-1,-1,10,-1,-1,-1,-1],"split_conditions":[2.1568628E-2,4.285104E-2,9.862745E-1,8.721629E-2,-4.5374718E-2,-2.9962065E-4,1E-1,1.0067714E-4,-1.8489795E-2,8.469586E-2,2.8140647E-3],"split_indices":[10,7,8,2147483647,2147483647,7,2,2147483647,2147483647,0,0],"split_type":[0,0,0,0,0,0,0,0,0,0,0],"sum_hessian":[5.11E3,6E0,5.104E3,4E0,2E0,4.968E3,1.36E2,4.862E3,1.06E2,9E0,1.27E2],"tree_param":{"num_deleted":"4","num_feature":"16","num_nodes":"11","size_leaf_vector":"0"}},{"base_weights":[3.3812616E-5,4.9692806E-4,-4.9874987E-2,-6.95168E-4,4.4708304E-2,7.314278E-2,-1.28753E-1,5.218462E-4,-5.5071235E-2,-2.30869E-2,1.2271711E-1,-3.0642081E-2,2.1967724E-1,-2.3586586E-1,-1.3056623E-2],"categories":[],"categories_nodes":[],"categories_segments":[],"categories_sizes":[],"default_left":[true,true,false,true,false,true,true,true,true,false,false,true,true,true,true],"id":81,"left_children":[1,3,-1,-1,9,-1,-1,-1,-1,-1,-1,